{"type":"LSTM","options":{"inputSize":11,"inputRange":11,"hiddenLayers":[20,20],"outputSize":11,"decayRate":0.999,"smoothEps":1e-8,"regc":0.000001,"clipval":5,"maxPredictionLength":100,"dataFormatter":{"indexTable":{"r":0,"e":1,"s":2,"t":3,"a":4,"b":5,"o":6,"p":7,"stop-input":8,"start-output":9,"unrecognized":10},"characterTable":{"0":"r","1":"e","2":"s","3":"t","4":"a","5":"b","6":"o","7":"p","8":null,"9":null,"10":null},"values":[{"input":"restart","output":"restart"},{"input":"reboot","output":"restart"},{"input":"start","output":"start"},{"input":"stop","output":"stop"}],"characters":["r","e","s","t","a","b","o","p","stop-input","start-output","unrecognized"],"specialIndexes":[8,9,10]}},"trainOpts":{"iterations":1000,"errorThresh":0.005,"log":true,"logPeriod":10,"learningRate":0.01,"callbackPeriod":10,"timeout":"Infinity"},"input":{"rows":12,"columns":11,"weights":[0.2816044092178345,0.13573835790157318,0.0403655543923378,-0.0764150470495224,-0.0245501808822155,0.14272968471050262,0.2473808079957962,-0.235178604722023,-0.28794237971305847,-0.14014293253421783,0.26875996589660645,1.1857047080993652,0.05844782292842865,1.1114975214004517,-0.42899468541145325,-0.9465489983558655,-0.6036316156387329,-0.6592505574226379,-0.009201792068779469,0.4081079661846161,-1.0656237602233887,-0.904402494430542,2.0654397010803223,1.0399055480957031,1.7129144668579102,0.6344665884971619,0.5251748561859131,-2.0469324588775635,-0.8609841465950012,1.388019323348999,-0.38216179609298706,-2.1488401889801025,0.9641583561897278,0.4444356858730316,0.5159465074539185,0.5674600005149841,-0.8055639863014221,1.4217772483825684,-1.0194894075393677,-0.3777020275592804,0.7239111661911011,-1.1768640279769897,-0.5817466378211975,1.8806099891662598,-1.1596438884735107,-0.4005352258682251,-0.7661262154579163,-0.2945270538330078,1.220489740371704,1.2728675603866577,-0.2667587399482727,-0.5452160835266113,-0.7867010235786438,0.9930834174156189,0.8894197344779968,-1.7913269996643066,1.1298714876174927,-1.3117105960845947,0.1353689283132553,-0.15254400670528412,0.9435820579528809,0.21715499460697174,0.6726927161216736,-0.2961311936378479,1.3437212705612183,-0.35624927282333374,-1.6498186588287354,-1.3754216432571411,-1.312547206878662,0.9163571000099182,-1.576816439628601,1.30637526512146,1.2539983987808228,-0.38250717520713806,1.7605186700820923,1.980221152305603,-1.527563452720642,-1.4106903076171875,-0.9312347173690796,-0.5999768376350403,0.19711922109127045,-2.0671193599700928,1.5090901851654053,0.16153781116008759,-0.31302157044410706,0.8369472622871399,0.45354458689689636,-2.9243783950805664,-3.155395984649658,1.2212247848510742,-2.9881911277770996,-1.2586097717285156,-0.30157575011253357,1.4511290788650513,-1.998013973236084,1.0078874826431274,0.3216042220592499,2.86887526512146,-2.3642759323120117,0.29053783416748047,-0.33092811703681946,0.19024285674095154,0.6029091477394104,-0.5721653699874878,-0.8659294247627258,0.36231574416160583,0.7539805769920349,0.5289610028266907,-0.0047511570155620575,0.20181512832641602,0.1099286898970604,0.6651490330696106,0.7401800751686096,-0.04858986288309097,0.2773950695991516,0.44430458545684814,-1.0973657369613647,0.2568717300891876,-0.3177312910556793,-0.8973507881164551,-0.161966472864151,0.07960770279169083,-0.06855350732803345,0.0594545416533947,0.06540950387716293,-0.0012869482161477208,-0.05680277943611145,0.02691943198442459,0.01870863325893879,0.0043701352551579475,-0.05438476800918579,-0.06474407017230988]},"hiddenLayers":[{"inputMatrix":{"rows":20,"columns":11,"weights":[-0.47121140360832214,-0.18008966743946075,-0.08462034910917282,0.17016927897930145,1.1639617681503296,-0.6212803721427917,0.26334723830223083,0.3899933695793152,-0.03607764095067978,0.23981408774852753,1.1481127738952637,-0.46235132217407227,-0.024564065039157867,-0.6878958344459534,0.645636796951294,0.8707802295684814,0.27247920632362366,1.4957908391952515,-0.2449365109205246,-0.7977543473243713,0.5935713052749634,0.9329036474227905,-0.1574063003063202,0.13609081506729126,0.25095701217651367,0.20128066837787628,1.9203758239746094,0.3573339283466339,-0.3124830722808838,-0.270684152841568,-1.0371716022491455,-0.1840498149394989,1.6850616931915283,-0.2714248299598694,-0.15922486782073975,-0.5459578633308411,0.49182188510894775,0.34318384528160095,-0.4992246627807617,1.182894229888916,0.08524566143751144,0.20719245076179504,0.4568048417568207,0.7791544198989868,-1.3533110618591309,-0.6885247826576233,-1.2881066799163818,0.9358888268470764,0.2285575419664383,1.172654151916504,0.452348530292511,-0.2241131216287613,0.42284756898880005,1.368157148361206,-0.080526202917099,0.18388521671295166,0.00017977434617932886,-0.0011134346714243293,0.4160917401313782,0.907558262348175,-0.8063960671424866,0.6660330891609192,0.36323657631874084,0.0958578810095787,0.05053024739027023,1.1293268203735352,-1.1656231880187988,0.28843459486961365,-0.9360482692718506,-0.4001671075820923,1.0273178815841675,-0.08563786000013351,-0.5945591926574707,0.778086245059967,-0.31741106510162354,1.231744647026062,1.0971487760543823,-0.7605020999908447,-0.6428497433662415,-0.8069821000099182,0.5626595616340637,-0.3026392161846161,0.43680018186569214,0.41677325963974,-0.23193009197711945,0.749276340007782,1.028259515762329,-0.6667837500572205,-0.5680257081985474,-0.377918541431427,-1.151432991027832,0.18203556537628174,-0.4767923653125763,-0.107066310942173,0.6047327518463135,-0.25466614961624146,0.31932124495506287,1.275209665298462,-0.20955222845077515,-0.6547110080718994,-0.7393520474433899,-0.5325822830200195,-0.2378472238779068,1.3252999782562256,-0.7058700323104858,-0.1279500424861908,0.3861416280269623,-0.00004789777085534297,0.8391364216804504,1.4782172441482544,0.6636830568313599,-0.4975172281265259,0.3708145320415497,0.13077351450920105,-1.81948721408844,-1.5774290561676025,0.7497957944869995,0.12269198894500732,0.9775393605232239,-0.35349777340888977,-0.8435260057449341,0.009966837242245674,-0.11700543761253357,0.1399056315422058,-0.8244742155075073,-0.18471023440361023,0.6019135117530823,0.49150368571281433,-1.2345924377441406,-0.021800348535180092,-0.26909929513931274,-0.1820373386144638,-0.11744412779808044,-0.1765645444393158,-0.19641172885894775,-0.3659442663192749,0.9677026271820068,-0.7320228219032288,0.4243181645870209,0.14707186818122864,-0.1624193638563156,0.2117493450641632,1.4799129962921143,-1.0205557346343994,-0.24917419254779816,-1.3130273818969727,-0.08090736716985703,-0.9930551052093506,0.6049506664276123,0.5130175352096558,0.21070736646652222,0.29766330122947693,1.495321273803711,-0.7327193021774292,0.5557294487953186,0.030065350234508514,0.38153037428855896,0.39100754261016846,-1.4235628843307495,-0.9727470278739929,-0.5000298023223877,0.1906442791223526,1.1328595876693726,-0.6420488357543945,-1.421435832977295,-0.25963112711906433,1.5233685970306396,-0.11805906891822815,-1.0208337306976318,0.6582932472229004,0.5728740692138672,-2.2257978916168213,1.1978453397750854,-1.0692116022109985,-0.06996460258960724,0.1769828051328659,-0.1565190553665161,-0.081531822681427,-0.767539381980896,1.1450157165527344,0.7401041388511658,-0.4028277099132538,1.390677571296692,0.35780560970306396,-0.27074161171913147,0.6713652014732361,1.0612633228302002,-0.5141798853874207,0.5710669755935669,-0.5160478353500366,-0.6187152862548828,-0.2821198105812073,0.05972550809383392,0.24409940838813782,0.36552587151527405,0.14324530959129333,0.785396158695221,-0.0409473218023777,-1.0498193502426147,-0.4857134222984314,-0.6727986931800842,1.2238260507583618,0.11853580921888351,1.674787998199463,-0.10876656323671341,-0.6462362408638,0.42640554904937744,1.091959834098816,-0.3922630846500397,-0.4106833338737488,-0.054026711732149124,-0.2756808400154114,-0.5269752740859985,0.6862351298332214,0.8226497173309326,-0.3610698878765106,-0.062241826206445694,-0.920190691947937,0.38337066769599915,0.639285683631897]},"inputHidden":{"rows":20,"columns":20,"weights":[-0.4217017889022827,0.049586888402700424,0.31503424048423767,-0.6107536554336548,0.5501077175140381,-0.18085001409053802,0.06730616837739944,0.09404817968606949,-0.49767637252807617,0.26517045497894287,-0.5237630009651184,-0.6562680006027222,0.3437962532043457,0.7497114539146423,1.367212176322937,-0.051635194569826126,-0.799044132232666,-0.760440468788147,-0.08371009677648544,0.43731769919395447,0.18153917789459229,-0.052926547825336456,0.4393436312675476,0.3006783723831177,1.206326961517334,-0.034787796437740326,0.1578511893749237,1.229390263557434,-1.7945033311843872,0.04402543231844902,-1.6140174865722656,-3.1874964237213135,-0.2783929407596588,-1.179733395576477,-0.9314908385276794,-0.1593218892812729,0.0826055258512497,-1.850308895111084,-0.7324503660202026,-0.10303115099668503,-0.2863411009311676,-0.7257415652275085,0.04691695421934128,-0.10988946259021759,-1.4361379146575928,-0.08555655181407928,-0.04253637418150902,0.7236756682395935,0.5638929605484009,0.1132202297449112,-0.9902487397193909,-0.7565945982933044,-0.03019551932811737,-0.8993247151374817,0.15721265971660614,-0.15529818832874298,0.13225097954273224,0.30976536870002747,1.364648699760437,-0.06756117194890976,-0.164724200963974,-0.23786906898021698,-0.23024560511112213,-1.0898563861846924,0.33506694436073303,-0.662772536277771,0.8290046453475952,-0.20860324800014496,-1.6430683135986328,1.4387985467910767,-0.5446738004684448,-2.4088082313537598,0.059643831104040146,0.030074087902903557,2.3532514572143555,-0.7918387055397034,-1.2352015972137451,-2.320175886154175,0.1464814394712448,0.7107641100883484,-0.74313884973526,-0.6815527081489563,-0.009332453832030296,-0.41792216897010803,-0.383894145488739,0.02250857837498188,-0.09031719714403152,1.0452543497085571,-0.8018133640289307,-1.0579543113708496,-1.4764090776443481,1.586618423461914,0.18267902731895447,-1.3863588571548462,0.8674518465995789,0.023823460564017296,0.1818884015083313,1.488713264465332,1.1044225692749023,0.3508455753326416,-0.5526971220970154,-0.03817996755242348,-0.6722855567932129,-1.001409888267517,0.8221248388290405,-0.7732164859771729,0.9656683802604675,-0.5047956109046936,-0.05368070676922798,0.5299903750419617,-0.25477635860443115,-1.4386612176895142,0.022163882851600647,0.789007842540741,1.6066062450408936,-0.746475875377655,-1.5128744840621948,-1.0729459524154663,-0.3081376254558563,1.085326075553894,-0.2479800581932068,-0.33783194422721863,0.23327070474624634,-0.34576305747032166,0.4515921175479889,-0.44389092922210693,0.4162706434726715,-0.09303285926580429,-0.027441948652267456,-1.0786060094833374,-0.7144435048103333,0.6834361553192139,-0.4847588539123535,-0.5301021933555603,-0.7354238033294678,0.01081723440438509,0.12381500005722046,0.6971569657325745,0.37755271792411804,0.5517021417617798,0.9044898748397827,1.320770263671875,0.37976208329200745,1.929670810699463,0.37494543194770813,1.29319167137146,-0.5752888321876526,0.35989436507225037,0.6354811787605286,1.4550762176513672,-1.209030270576477,1.0589454174041748,1.0141140222549438,-0.9930910468101501,-0.09263349324464798,0.06213577836751938,1.639909267425537,1.0023772716522217,-0.2639588415622711,-0.48906204104423523,1.64804208278656,1.0882307291030884,0.7725555300712585,2.645112991333008,-0.23271332681179047,1.7525681257247925,-1.541195034980774,-0.049297500401735306,-1.8647748231887817,1.4976791143417358,-0.47881925106048584,-0.059536125510931015,0.4640715420246124,-2.1464335918426514,1.0056103467941284,-0.034808989614248276,1.241666555404663,-0.7301396131515503,-0.5337008237838745,-0.545550525188446,-0.27020391821861267,-0.16633418202400208,-0.12930656969547272,-1.0251734256744385,0.4953940510749817,-0.69126296043396,0.9825102090835571,-0.6246950626373291,-1.7856708765029907,1.1730080842971802,0.9333688616752625,0.4354941248893738,-0.4834270775318146,-1.0072678327560425,0.4792638421058655,-0.4463997185230255,-1.0952301025390625,-2.2841763496398926,-0.1337474137544632,1.0233724117279053,0.16157667338848114,0.18843574821949005,1.022194743156433,-0.04481927305459976,0.8816268444061279,-0.35944321751594543,0.3949110507965088,-1.1589691638946533,-0.7110477685928345,0.36070841550827026,-1.3429276943206787,1.9689834117889404,-0.38631805777549744,-0.809185802936554,0.41224202513694763,-0.2552858889102936,-0.23021337389945984,0.32659637928009033,-0.07069051265716553,0.14620184898376465,0.8754625916481018,1.2042608261108398,0.598114550113678,1.588525414466858,-0.4075552225112915,1.686861515045166,-1.0684196949005127,0.56159508228302,-0.5037227272987366,0.7470707893371582,-0.8180785179138184,0.4928589165210724,2.2203452587127686,-3.8798277378082275,1.4912561178207397,0.032813627272844315,1.9782811403274536,0.21155749261379242,1.10172700881958,-0.16970057785511017,-0.0458330363035202,0.060687996447086334,0.13341523706912994,-0.6682385206222534,1.2872214317321777,-0.5973800420761108,1.3670209646224976,-0.4139823317527771,-0.40305379033088684,0.24767707288265228,-0.6313580870628357,-0.22753991186618805,-0.6221021413803101,0.9761785864830017,0.296741783618927,-0.7187129259109497,-0.5361568331718445,-0.5055823922157288,-0.9788047671318054,1.7236634492874146,0.13546617329120636,1.671465516090393,-0.09450504928827286,0.8914565443992615,1.707353949546814,0.14265602827072144,0.29483622312545776,-0.31335052847862244,0.9770585894584656,1.0511032342910767,-0.7935405373573303,1.048797607421875,-0.07126973569393158,-1.0070284605026245,-1.0150034427642822,-0.8966593146324158,0.13426975905895233,1.511060357093811,-0.633583664894104,0.49698731303215027,0.5310803651809692,0.40598684549331665,1.475282907485962,0.21357807517051697,0.856890082359314,0.5142346024513245,-0.19306358695030212,-0.22325284779071808,-1.603500247001648,0.5416231155395508,-0.023421872407197952,0.9930462837219238,1.2886523008346558,-3.312652349472046,1.799576997756958,0.3798101246356964,1.6401596069335938,-0.15803180634975433,1.808923363685608,0.07769034802913666,-0.3423002362251282,-1.44668710231781,0.5075228810310364,-0.6666706800460815,0.11515793949365616,-0.7149091958999634,0.48603078722953796,0.301565557718277,1.3252222537994385,0.3586534857749939,0.3021111786365509,-0.6183509230613708,-0.6025433540344238,-0.7391698956489563,-0.4244263768196106,0.7676190733909607,-0.7407070398330688,1.4616923332214355,-0.23848706483840942,-0.10935680568218231,-0.44277265667915344,-0.6121674180030823,-0.14296892285346985,-0.823799729347229,0.19027867913246155,-0.2866194546222687,0.3632826805114746,-1.2576333284378052,0.05788908153772354,-0.2648845314979553,-0.4261496961116791,-1.385909914970398,-0.18371239304542542,0.7714770436286926,2.3292534351348877,-0.42302456498146057,-1.0473482608795166,-0.024751536548137665,0.5465441942214966,-0.02499818429350853,1.336732268333435,1.7172391414642334,0.6060165762901306,2.340116024017334,-0.10168187320232391,1.6493027210235596,-1.3976867198944092,-0.4852999150753021,0.846444308757782,1.1918981075286865,0.16820810735225677,-0.29169633984565735,1.890916347503662,-1.5100390911102295,0.12628091871738434,0.38169384002685547,2.2016441822052,0.4642640948295593,0.8623409867286682,-0.6287084817886353,-0.6948948502540588,-0.16512495279312134,0.6841140985488892,0.3085864782333374,-1.6517895460128784,0.6637316942214966,-0.947307825088501,1.515169382095337,-2.7255682945251465,-0.26438894867897034,-1.5904065370559692,0.618724524974823,0.6297391653060913,-0.9795123338699341,1.2734878063201904,0.5199277997016907,1.0333526134490967,-0.9177541136741638,1.5710999965667725,-0.22530147433280945,-0.8678622245788574,0.35717326402664185,-1.1013575792312622,-0.8425948023796082,0.4704684913158417,-0.6591408252716064,0.8646012544631958,0.1861262321472168,0.5603227615356445,-0.10797209292650223,-1.0275449752807617,0.08350970596075058,0.19065332412719727,-0.5992127060890198,-0.12575003504753113,-0.9542677998542786,-0.5368798971176147,0.5808734893798828,-0.284496545791626,1.1592252254486084]},"inputBias":{"rows":20,"columns":1,"weights":[-1.3750531673431396,0.0035990248434245586,0.5276122689247131,-0.30008557438850403,-1.179057240486145,-0.5318378210067749,-1.0930944681167603,-0.9374939799308777,0.07469993084669113,-1.560486912727356,-0.3526661992073059,0.3689543604850769,-0.43254324793815613,0.5285926461219788,-0.8413633704185486,0.09858139604330063,-0.3916511833667755,-1.04334557056427,-0.5727185606956482,0.4899512529373169]},"forgetMatrix":{"rows":20,"columns":11,"weights":[-0.45909425616264343,-0.21772314608097076,0.010946118272840977,-0.3484010100364685,0.7605757117271423,0.253950834274292,-0.340587317943573,-0.1846732646226883,-0.5586121678352356,-0.0618121437728405,0.5583305954933167,-0.9280256628990173,0.2200772911310196,-0.7131806015968323,-0.21955013275146484,1.5855847597122192,1.1100682020187378,-0.8140993714332581,0.29510757327079773,-1.30198073387146,0.8233965635299683,1.5894463062286377,-0.4343840777873993,-0.4619680643081665,-0.699335515499115,0.5322211384773254,-0.01564027927815914,1.2932145595550537,0.5680467486381531,-0.06915877014398575,-0.17609353363513947,0.43430420756340027,-0.19221623241901398,-0.5662659406661987,0.7462224960327148,-0.38716286420822144,-0.8004144430160522,0.5876893401145935,1.130203366279602,-0.8589128255844116,0.4650031328201294,-0.9606353044509888,0.33591312170028687,0.4673157334327698,-1.2145475149154663,0.10558145493268967,-1.078800082206726,-0.02239130064845085,1.1732896566390991,0.6050801873207092,-0.27767494320869446,-0.2760237157344818,-0.47891825437545776,1.0005311965942383,0.6166142821311951,-1.0793644189834595,0.28526806831359863,-0.3611597418785095,-0.7976140975952148,1.2021328210830688,1.3939162492752075,-0.5697718262672424,0.06254079192876816,-0.6910645961761475,0.20281611382961273,1.1719166040420532,-0.8178561925888062,-0.057692110538482666,-0.768744945526123,-0.30029481649398804,1.0047922134399414,1.0535869598388672,-0.2437736690044403,0.07342318445444107,-0.6246203780174255,0.7317215800285339,0.8019141554832458,0.18280301988124847,-0.0958314761519432,-0.5428740382194519,1.587498664855957,0.21974323689937592,-0.46456798911094666,0.7982053756713867,0.17655520141124725,0.2787090241909027,0.36371907591819763,0.6776189208030701,0.31556954979896545,-0.345697283744812,0.6140214204788208,0.13650059700012207,-0.5138050317764282,0.2835659086704254,0.8157289028167725,-0.2616584300994873,0.03383367508649826,-0.7614180445671082,-0.231211856007576,0.4757564067840576,-1.023439645767212,-0.6065938472747803,0.3662388324737549,-1.2167245149612427,-1.2522765398025513,0.8355388641357422,-0.09604254364967346,1.2520889043807983,0.7678379416465759,-0.16846813261508942,1.0109021663665771,0.6502850651741028,0.7444977164268494,0.02281496860086918,0.5357778072357178,-0.6857595443725586,-0.48884665966033936,0.26301485300064087,-0.7467113137245178,-1.0342903137207031,0.4700336754322052,1.5049123764038086,0.5768615007400513,0.618290364742279,0.5075719356536865,-0.11760647594928741,-2.606253147125244,-0.16882485151290894,0.9547948837280273,-0.1950570046901703,-0.6771359443664551,0.2874443233013153,-1.0700149536132812,0.4931497573852539,-0.2343224734067917,-0.36418789625167847,1.2606697082519531,1.2013218402862549,-0.5224239230155945,0.06345492601394653,-0.6746771931648254,0.3209015130996704,0.8944090008735657,-0.3801736533641815,-0.6383426189422607,-0.293049156665802,-1.110512137413025,-0.540520429611206,0.6579463481903076,0.28768032789230347,-0.3240305185317993,0.6660435795783997,0.21984513103961945,-0.8232384324073792,1.197908878326416,1.8521113395690918,1.4668331146240234,-0.4992242455482483,0.2691717743873596,-0.49779003858566284,-1.4217692613601685,1.4934545755386353,-0.9693923592567444,-1.6828391551971436,0.07107183337211609,-0.11834198236465454,0.4575235843658447,-0.4109448790550232,-0.7791537046432495,-0.27454665303230286,0.11397538334131241,0.01660001650452614,1.2585272789001465,0.5031959414482117,-0.007205060217529535,-0.16976453363895416,0.028405649587512016,-0.9011393189430237,0.7473011612892151,-0.4415675103664398,0.8278771042823792,0.989846408367157,-1.3690541982650757,-1.3833543062210083,-0.42429980635643005,-0.5153359770774841,0.44200894236564636,-0.912664532661438,-0.7445024847984314,-0.8590688109397888,-0.3933369219303131,-0.1849997490644455,0.8838387131690979,0.7909578084945679,-0.09648479521274567,0.1799430251121521,0.7035942077636719,0.01607738435268402,0.24866138398647308,-0.713654637336731,0.4373195767402649,-0.06849069148302078,0.6520510315895081,-1.0581709146499634,-0.2895355224609375,-0.3811544179916382,0.014664214104413986,-0.2933238446712494,0.2068815529346466,-1.1020562648773193,0.3739328384399414,-1.2581907510757446,-1.3064051866531372,0.7495476603507996,1.0080554485321045,-0.5377633571624756,-0.14809051156044006,0.15311799943447113,0.5836989283561707,0.4867098927497864]},"forgetHidden":{"rows":20,"columns":20,"weights":[-0.7134395241737366,-0.6334657669067383,-0.48134827613830566,-0.7904630303382874,-0.07331746071577072,-0.6521998047828674,0.6644003391265869,-0.1976538747549057,0.6904658079147339,0.13287320733070374,0.3159449100494385,-1.0651054382324219,-0.8534995317459106,-0.05183185636997223,1.6735223531723022,-0.3910711109638214,-0.8822041153907776,-0.07484950125217438,0.41590386629104614,0.7925953269004822,-0.21163614094257355,-0.36968573927879333,0.0037165884859859943,-0.42492976784706116,0.10564161092042923,-0.1691102832555771,-0.07371820509433746,-0.20217691361904144,0.8808137774467468,-0.1254306435585022,1.1775771379470825,0.9612020254135132,-0.04518631100654602,1.0261911153793335,0.6278280019760132,0.1773640662431717,-0.27333977818489075,0.7976648807525635,0.2417302280664444,0.10381730645895004,0.2258271425962448,-0.27504831552505493,-1.3471920490264893,-0.7062497735023499,1.1435742378234863,-0.041759416460990906,-0.38054317235946655,-1.1417433023452759,-0.13501375913619995,0.16806182265281677,0.5856640338897705,-3.268198013305664,-0.060941219329833984,0.875237762928009,0.7221053838729858,-1.2044901847839355,-0.4236468970775604,-0.47062167525291443,-1.3686076402664185,0.3170839250087738,-0.11580641567707062,-0.691798210144043,0.3351273834705353,-0.6267573833465576,-0.6426150798797607,-0.595564067363739,0.258382648229599,0.08595587313175201,0.9311933517456055,-0.08573510497808456,0.8944899439811707,0.5144780278205872,-0.49263083934783936,0.5763394236564636,1.613800287246704,0.5814440250396729,-0.6001924276351929,0.7506809234619141,0.35368743538856506,0.17759734392166138,-0.38796189427375793,-0.9384340643882751,0.08384282886981964,-0.8020816445350647,-0.7375578880310059,-0.5120251178741455,-0.29093047976493835,0.6217328906059265,-0.44661760330200195,-1.2056822776794434,0.32174426317214966,0.018332764506340027,-0.03359028324484825,0.4136303961277008,0.8448156118392944,0.420488566160202,-0.04972456023097038,-0.3856953978538513,1.6034551858901978,0.050028007477521896,-0.14801424741744995,-0.5586106777191162,-0.14986549317836761,-0.46677377820014954,0.05363742634654045,-0.4915265738964081,0.18306425213813782,0.04997720941901207,0.15333329141139984,0.17259730398654938,0.7727587223052979,0.3430732786655426,-0.6647365689277649,0.01329091377556324,0.019688988104462624,-0.039054688066244125,-0.3459336757659912,0.1940799504518509,0.207126647233963,0.30350998044013977,-0.47353681921958923,-0.23449967801570892,-0.009440178982913494,-0.437980979681015,-0.057256054133176804,-0.5593132376670837,0.05194639787077904,0.23156757652759552,0.5152172446250916,0.28539976477622986,-0.06585372984409332,0.4701339304447174,-0.41550788283348083,-0.315091073513031,-0.3426859974861145,0.2515488862991333,-0.3695933222770691,-0.02207477018237114,0.08272039145231247,0.028780503198504448,-0.19048351049423218,0.5728447437286377,-0.7043982148170471,-0.11370380222797394,-0.16681675612926483,-0.4588947296142578,0.6524291038513184,-0.8498349785804749,-0.034553468227386475,-1.304319143295288,1.5314916372299194,-1.4580994844436646,0.2604442536830902,2.005429744720459,0.5924398899078369,-0.11934667825698853,-0.8132309317588806,-0.3568975329399109,-0.5277633666992188,-0.09101933240890503,0.18951252102851868,0.781619131565094,-0.8001900315284729,0.39414745569229126,1.0271271467208862,0.5334613919258118,0.5750665068626404,-0.7768076062202454,-1.098323941230774,0.9102246761322021,0.24213194847106934,-0.4510010778903961,1.4380260705947876,-0.16805005073547363,0.4300857484340668,-1.0528901815414429,1.2813564538955688,-0.5349796414375305,-1.4281622171401978,0.3003365099430084,0.6919835209846497,0.7825861573219299,-0.09209192544221878,0.6767197251319885,0.13034647703170776,0.7876799702644348,-0.5805214047431946,-0.3269388675689697,0.8996683955192566,0.07801826298236847,0.1409684121608734,0.6448739171028137,-0.17700937390327454,0.6727132201194763,-0.40153732895851135,-1.0459237098693848,0.8118821978569031,0.772983968257904,0.06174313649535179,0.3048988878726959,0.2982502579689026,-0.3504756987094879,0.6219441890716553,-0.040014900267124176,0.1926160603761673,0.13908790051937103,0.361300528049469,-0.10578645020723343,-1.1785097122192383,0.3903466761112213,0.600986123085022,-0.3516593873500824,0.5875484943389893,0.19458183646202087,0.5433858036994934,0.02195148728787899,0.6927729249000549,-0.7544166445732117,0.16170917451381683,-0.04983530193567276,-0.3094780147075653,-1.1907360553741455,1.3396449089050293,-0.987907350063324,-0.016845792531967163,-0.9634256362915039,0.09646022319793701,-0.09869839251041412,-0.3667404055595398,-1.0326125621795654,0.9153871536254883,0.11931201815605164,-1.6590609550476074,1.2819490432739258,0.13537217676639557,1.3874393701553345,-0.6836181282997131,-0.7429707050323486,0.6056392788887024,-0.38215672969818115,-0.30310261249542236,-1.2584632635116577,0.1138424202799797,-0.40947991609573364,-0.47166579961776733,-0.5259410738945007,0.557174801826477,0.2550230920314789,1.1033259630203247,0.0013627811567857862,0.6700071692466736,0.09834390878677368,-0.7155066728591919,-0.0029912625905126333,-0.6787928342819214,-0.0411706380546093,-0.713260293006897,2.191169023513794,0.19220070540905,0.30114006996154785,0.6581005454063416,1.1747370958328247,0.18236705660820007,0.4985783100128174,1.8482564687728882,0.8321271538734436,0.08457878977060318,-3.0894412994384766,1.4840803146362305,0.6219289898872375,-0.3893393278121948,0.549995481967926,3.1734933853149414,-1.6192302703857422,1.5725234746932983,-1.342998743057251,1.0760184526443481,0.5880590677261353,-1.8684601783752441,1.6096800565719604,-0.21027396619319916,-0.2190323770046234,-0.33101075887680054,-0.3513588309288025,-0.09952393919229507,-0.169692263007164,0.28093063831329346,-0.23991025984287262,-0.17365562915802002,0.22900213301181793,-0.514077365398407,0.1947547197341919,-0.14034982025623322,0.11393813788890839,-0.5520919561386108,0.4124852120876312,-0.08432084321975708,-0.8014785647392273,0.5406885743141174,0.46522340178489685,0.048064012080430984,-0.7592004537582397,-0.056046683341264725,-1.0065432786941528,-0.031760115176439285,-0.5133680701255798,-0.041640616953372955,-0.368875652551651,1.0105507373809814,0.22876983880996704,-0.3863413333892822,-4.781276702880859,-0.5066604018211365,-1.0327664613723755,1.9226391315460205,-0.36086586117744446,-0.8317927718162537,0.945721447467804,-0.480085551738739,-0.46249258518218994,0.8545765280723572,-0.8454471826553345,0.4431851804256439,0.4709016978740692,-2.7107319831848145,0.628943920135498,-1.4134149551391602,0.28606927394866943,-0.03285456821322441,0.5667724609375,0.17570491135120392,-1.0387637615203857,-0.1798378825187683,-0.16481943428516388,1.2703428268432617,1.0146149396896362,1.030515432357788,-0.13496609032154083,1.8370522260665894,-1.2956006526947021,-0.35614559054374695,-0.7488918304443359,-1.0282684564590454,-1.1203314065933228,0.8600722551345825,-1.074479341506958,0.9953201413154602,-1.4978893995285034,0.20057933032512665,-0.8359308242797852,0.4816051423549652,-0.66913241147995,0.33954373002052307,-0.4802323281764984,0.5312364101409912,-1.1485182046890259,-0.785088300704956,0.5346225500106812,-1.299511432647705,1.038385033607483,-0.03635431453585625,-0.9047020673751831,0.44350558519363403,-0.5763222575187683,-1.6002904176712036,-0.17273972928524017,-0.1895717978477478,0.56536465883255,-0.852655291557312,-0.019096164032816887,-0.010693336836993694,0.8147666454315186,-0.2733173370361328,0.4356023669242859,2.166978597640991,0.21526780724525452,-0.12956759333610535,-0.480623722076416,1.3039512634277344,-0.3443033993244171,-0.27393263578414917,-1.4424790143966675,1.0355193614959717,-0.5600548386573792,-0.40519407391548157,-0.743742823600769,0.08035141974687576,0.12825296819210052,0.6134326457977295,-0.11086509376764297,-0.49758556485176086,-0.13092553615570068,-1.4382874965667725,-0.4745301306247711,0.1593027412891388,0.7147444486618042,-1.4592456817626953,1.1057859659194946,0.03652733936905861,-0.014590077102184296]},"forgetBias":{"rows":20,"columns":1,"weights":[0,0,0,0,0,0,0,0,0,0,0,0,0,0,0,0,0,0,0,0]},"outputMatrix":{"rows":20,"columns":11,"weights":[-0.11281435191631317,0.01052338071167469,0.10746155679225922,0.6291388869285583,1.4278602600097656,-0.3533370792865753,-0.3858380913734436,-0.05958817899227142,-0.45926788449287415,0.03877483308315277,1.0391395092010498,-0.531732439994812,0.4308653473854065,-0.5078529715538025,-0.2512466013431549,1.426669955253601,0.5142735242843628,0.11185562610626221,-0.2202387899160385,-0.9907446503639221,0.46059492230415344,1.0311076641082764,-0.06818822771310806,0.2999930679798126,0.619583249092102,0.3008898198604584,2.0418412685394287,0.7526816129684448,-0.6567811369895935,-0.19835084676742554,-1.2191390991210938,-0.5665539503097534,1.4508684873580933,-0.8792524933815002,0.617077112197876,-1.1484228372573853,-0.09476552903652191,1.8982040882110596,0.3608029782772064,0.08744994550943375,-0.4201217591762543,-0.8746529221534729,0.8157214522361755,1.1885608434677124,-1.6136902570724487,-0.9401147365570068,-1.5120216608047485,1.2056052684783936,0.454036146402359,1.2367502450942993,0.6569972634315491,-0.5092844367027283,0.7528190016746521,1.6644651889801025,0.03701828047633171,-0.2884124219417572,0.2331802099943161,-0.6544733047485352,0.8976542353630066,1.2976728677749634,0.07449996471405029,0.18246714770793915,0.27338162064552307,-0.5517342686653137,0.7144918441772461,1.2148160934448242,-1.2457714080810547,0.5022798776626587,-0.994571328163147,-0.06769295036792755,1.5901997089385986,0.48467886447906494,-0.9692257642745972,0.7309098243713379,-0.8489197492599487,1.3847216367721558,1.1418081521987915,-0.8833903670310974,-0.42601990699768066,-1.1405911445617676,0.4322693645954132,0.6118395924568176,0.21211938560009003,0.2696577310562134,-0.13169312477111816,0.5097202062606812,1.4815024137496948,0.27005165815353394,-0.6837788224220276,-0.43748998641967773,-0.8734089732170105,0.4486123025417328,-0.5497223138809204,0.0707581639289856,0.4249473810195923,0.11972126364707947,0.4390798807144165,0.8953561186790466,0.05075003579258919,-0.28076016902923584,-0.4961938261985779,-0.2123415470123291,0.18747253715991974,1.754616379737854,-1.1562467813491821,0.12181094288825989,0.5596545338630676,-0.05245174095034599,0.44536706805229187,1.7544581890106201,0.7337226867675781,-0.1946629136800766,0.709222674369812,0.10387666523456573,-1.8305643796920776,-1.1947166919708252,0.22954034805297852,0.345742404460907,1.29342520236969,-0.6751565933227539,-1.261109709739685,1.3283239603042603,0.7515504956245422,1.2497133016586304,-0.9001586437225342,0.07476629316806793,-0.8900538086891174,-0.5318162441253662,-0.2052139937877655,-0.5083145499229431,-1.5570701360702515,0.34462442994117737,0.026206187903881073,0.03046480193734169,-0.0837024375796318,0.5097825527191162,1.1125686168670654,-0.9903185963630676,0.4830385446548462,0.749799370765686,-0.1638108789920807,0.09093334525823593,1.6078758239746094,-0.9887862801551819,0.5012428164482117,-0.7475138902664185,0.09000084549188614,-0.6256255507469177,0.9159302115440369,-0.31904441118240356,0.768394410610199,-0.04041112959384918,0.8131188154220581,-0.8611412048339844,1.5317983627319336,0.7047624588012695,1.4407809972763062,-0.5554846525192261,-0.8628077507019043,-2.5809643268585205,-0.7693774104118347,1.091652274131775,0.44820737838745117,-1.1059808731079102,-0.13737410306930542,-0.20132394134998322,1.3102035522460938,-0.20495931804180145,-1.3178969621658325,0.6460376977920532,0.6353618502616882,-1.598876714706421,1.1921234130859375,-0.9631382822990417,0.04652797058224678,0.1530410647392273,-0.35723569989204407,-0.2584623396396637,-0.3240811228752136,0.5952180624008179,1.1072667837142944,-0.028942447155714035,0.5215778946876526,0.32021796703338623,-0.2878008782863617,0.4635149836540222,1.0241525173187256,-0.9392749071121216,-1.4637150764465332,-1.0354020595550537,-0.9067850112915039,-1.429014801979065,0.12633925676345825,1.8339029550552368,-0.269288569688797,1.4570767879486084,1.2289408445358276,-0.6184192299842834,-0.7320991158485413,-0.5448365211486816,-0.21315741539001465,0.8442867994308472,0.6564746499061584,1.1189690828323364,-0.6866893172264099,-0.5448981523513794,0.32784733176231384,0.8397594094276428,-0.04732411727309227,-1.322157382965088,-0.725834310054779,-1.600361704826355,-0.33361825346946716,0.48947978019714355,1.4362813234329224,0.3049314618110657,-1.0602163076400757,-0.3543649911880493,1.544906497001648,0.3717721104621887]},"outputHidden":{"rows":20,"columns":20,"weights":[0.061175890266895294,-0.665260374546051,0.2132353037595749,-0.2642005980014801,-0.5426877737045288,0.061954647302627563,-0.526844322681427,0.05149827525019646,0.18854093551635742,0.15061227977275848,-0.3411422669887543,-1.508684515953064,-0.12313904613256454,0.9708758592605591,2.5661542415618896,-0.026285747066140175,-0.4069686830043793,-0.3317502439022064,0.4896981716156006,-0.1837061196565628,-0.3393017649650574,-0.2544046640396118,0.2823070287704468,-0.46983420848846436,-0.6821566224098206,-0.6186776161193848,0.23383869230747223,1.4799259901046753,-0.9716257452964783,0.36888542771339417,-1.7703601121902466,-1.271187424659729,-0.45004644989967346,-0.6687997579574585,1.1388968229293823,0.029711587354540825,-0.6138470768928528,0.037049099802970886,0.6788099408149719,-0.4050333797931671,-0.4382534623146057,-0.9231877326965332,-1.1006463766098022,-0.4557243585586548,-0.904218316078186,-0.22425991296768188,0.15524670481681824,0.6540310978889465,0.2839818596839905,0.5614388585090637,-0.6465109586715698,-0.6767203211784363,-0.06975120306015015,-0.9767627120018005,0.18814726173877716,-0.46511656045913696,-0.31939002871513367,0.14327503740787506,0.6093907952308655,-0.548269510269165,0.00544043118134141,-0.33545902371406555,0.18216100335121155,-0.20993517339229584,-0.9043824076652527,-0.10791507363319397,-0.20160426199436188,1.092603325843811,-0.5109294056892395,0.5757246017456055,-0.7127540111541748,-1.1837602853775024,0.21706324815750122,0.1996123492717743,1.8521692752838135,0.07590305060148239,-0.5282453298568726,-0.35550758242607117,0.9767138361930847,0.05370821803808212,-1.019610047340393,-0.8663746118545532,-0.21838577091693878,-0.744472324848175,-0.6707107424736023,-0.3028159439563751,0.19216011464595795,1.3809738159179688,-0.6496883034706116,-1.4283170700073242,-0.7432368993759155,0.6394118666648865,0.049572259187698364,-0.3199116587638855,0.2521984875202179,0.062351908534765244,-0.2571408748626709,0.8612122535705566,0.957697868347168,0.49117910861968994,0.05929575860500336,-0.19767524302005768,-0.4224351644515991,-0.2970477342605591,-0.20886042714118958,0.045932479202747345,0.035994820296764374,0.18615856766700745,0.8535766005516052,0.2891092002391815,-0.7850240468978882,-2.275160789489746,0.00025429559173062444,1.1011821031570435,2.086033582687378,-0.5229076147079468,-0.8427801728248596,0.5421483516693115,0.5968328714370728,0.5657187104225159,-0.13703715801239014,-0.6331431269645691,0.07797954976558685,0.022998780012130737,-0.11785860359668732,-0.04607301205396652,0.19279469549655914,-0.02710534818470478,0.47989144921302795,-0.3458845615386963,-0.46310558915138245,0.4109719395637512,-0.39026328921318054,-0.5470513105392456,-0.6635577082633972,0.02252991683781147,0.06531380116939545,0.7717176079750061,0.42967233061790466,0.34446483850479126,1.1416510343551636,1.4780793190002441,0.3009346127510071,2.304675817489624,-0.47679203748703003,1.4529544115066528,-0.5639415383338928,0.8958223462104797,-0.12873315811157227,1.9900277853012085,0.051941338926553726,0.13500958681106567,1.3132296800613403,-0.020381396636366844,-1.0638809204101562,-0.09456642717123032,1.7255213260650635,0.41858476400375366,0.18999452888965607,-0.1316068321466446,1.6561658382415771,1.415394902229309,0.47018834948539734,2.478726863861084,0.199374258518219,1.8633078336715698,-1.3178542852401733,-0.8285038471221924,-2.29270601272583,1.477097988128662,-1.0588241815567017,0.22534677386283875,1.1424332857131958,-2.1580915451049805,0.9207680821418762,-0.4029182493686676,1.6610442399978638,-1.1006051301956177,-0.9964423775672913,-0.31215593218803406,0.47375887632369995,0.44662630558013916,-0.970329761505127,-0.2755698561668396,-0.6241387724876404,0.12252135574817657,0.09623605757951736,-0.7613791227340698,-1.6078180074691772,1.4766333103179932,1.0757853984832764,1.0679646730422974,0.7023837566375732,-0.8030673265457153,2.7606842517852783,-0.9186351299285889,0.34031757712364197,-3.059159278869629,0.6562196016311646,-0.04164505749940872,0.25141608715057373,0.5456058382987976,1.018105149269104,0.161378875374794,1.239571452140808,-0.0953952819108963,0.34944891929626465,-1.1124022006988525,-0.8746504783630371,0.9880593419075012,-0.1587599366903305,2.0621843338012695,0.30152428150177,-1.0342390537261963,-0.018406299874186516,-0.2212556153535843,0.3295923173427582,0.4413073658943176,-0.08432428538799286,0.20808684825897217,1.0923335552215576,0.2453528791666031,1.7867240905761719,0.8871961832046509,-0.17281225323677063,0.9713237285614014,-1.1562395095825195,0.3719835579395294,0.09398733079433441,1.232865810394287,0.08897589892148972,0.5169079303741455,0.9347695112228394,-1.8759123086929321,0.22421224415302277,0.7404422163963318,1.0570021867752075,1.2831064462661743,1.3237305879592896,-0.9349668622016907,0.661437451839447,0.7226231694221497,-0.49379366636276245,0.46493974328041077,0.06221761554479599,0.19363796710968018,0.001711331307888031,-0.28045767545700073,0.477388858795166,0.6801502704620361,-0.27438732981681824,-1.0533846616744995,0.14225077629089355,1.2110919952392578,0.43923094868659973,-0.9215240478515625,0.04590881988406181,0.1271422803401947,-0.7925008535385132,0.3015129268169403,0.9472194910049438,2.870314598083496,0.2536817789077759,2.0900678634643555,1.605769395828247,1.2026318311691284,-0.513678252696991,-0.46365728974342346,-0.08482518047094345,2.5419540405273438,-1.2784103155136108,0.4405166506767273,1.5102612972259521,-2.151726245880127,0.08979381620883942,-0.7862914204597473,1.4543590545654297,0.7305411100387573,-1.9825700521469116,-0.3689282536506653,0.7875056862831116,0.9491229057312012,1.301168441772461,0.5344536900520325,0.29365622997283936,0.29708749055862427,-0.15547451376914978,-0.6997510194778442,-1.229941487312317,0.25909048318862915,-0.37104466557502747,1.1203504800796509,0.9985371232032776,-1.4726258516311646,-0.47716033458709717,0.41247063875198364,1.992342233657837,-1.4047596454620361,1.3300248384475708,0.19562113285064697,-0.15596681833267212,-1.3273608684539795,0.6780554056167603,-0.3260611593723297,-0.32080402970314026,-0.3973766267299652,0.14066831767559052,0.6113148331642151,1.8723713159561157,0.6069628596305847,0.47474539279937744,-0.9999265074729919,-0.8170060515403748,-0.8373635411262512,-0.8901782035827637,0.8667788505554199,-0.6141049265861511,2.306678056716919,-0.24692262709140778,-0.20488949120044708,-0.5458942651748657,-0.4751829206943512,-0.43677958846092224,-0.43033045530319214,-0.16972549259662628,-0.2410060316324234,0.3713448643684387,-0.636646032333374,0.05136249586939812,-0.13220997154712677,-0.37185192108154297,-2.0142500400543213,-0.4644124209880829,0.6746394634246826,1.614640474319458,-0.5220105051994324,-0.7827184796333313,1.142678141593933,0.7664703726768494,0.6820739507675171,1.2478636503219604,1.6595871448516846,0.7059872150421143,1.663854718208313,1.3860052824020386,1.003827691078186,-0.504019021987915,-2.7577197551727295,0.08084077388048172,0.48684927821159363,-0.1188388466835022,-0.12834174931049347,1.3631420135498047,-1.5928189754486084,1.4917210340499878,-0.5962661504745483,1.2871097326278687,0.3118765354156494,-0.1889936476945877,0.47269004583358765,0.011240591295063496,-0.31657758355140686,1.4621139764785767,0.3639552891254425,-2.1491425037384033,0.7472956776618958,-1.154109001159668,2.0296216011047363,-2.7643074989318848,0.1635800004005432,-0.6636879444122314,0.6141561269760132,0.734847366809845,-0.43861526250839233,0.9770609140396118,1.3515806198120117,1.0793352127075195,-1.1572048664093018,1.756873607635498,-0.9722028374671936,-0.5829071402549744,-0.6164035201072693,-0.36890822649002075,-0.7089980244636536,-0.04382285475730896,-0.7518810033798218,0.4445290267467499,0.6396134495735168,0.44799336791038513,0.4537358582019806,-1.2376705408096313,0.5915355682373047,-0.793873131275177,-0.8448660373687744,-0.47830337285995483,-0.08263781666755676,-1.3183588981628418,0.7702463269233704,-0.6693015098571777,0.4782329499721527]},"outputBias":{"rows":20,"columns":1,"weights":[-1.3391516208648682,-0.0715964064002037,0.5350567698478699,-0.35394883155822754,-1.189666509628296,-0.6011559963226318,-1.151183843612671,-0.9612012505531311,0.02812744677066803,-1.5535396337509155,-0.43292051553726196,0.373806357383728,-0.40535083413124084,0.4856373965740204,-0.8867684602737427,0.0881233885884285,-0.4498288035392761,-1.0835036039352417,-0.5894036293029785,0.2534664273262024]},"cellActivationMatrix":{"rows":20,"columns":11,"weights":[0.11567330360412598,0.7023669481277466,-0.3519502282142639,1.4203710556030273,-0.13718783855438232,0.2003909945487976,1.8335108757019043,0.7143024206161499,0.04321613162755966,0.32236361503601074,0.24043308198451996,-0.9185907244682312,0.06697946041822433,-0.952386200428009,0.07820271700620651,0.10263479501008987,0.8793254494667053,0.31355831027030945,-0.18545223772525787,-0.2412150353193283,0.937299907207489,0.08770532160997391,1.0954833030700684,0.14016011357307434,0.8679425120353699,0.13876254856586456,0.51630038022995,-0.8111613392829895,0.5774680972099304,0.28818801045417786,-0.11735423654317856,-0.5177773833274841,1.1041470766067505,-0.8047538995742798,0.10766054689884186,-1.061598300933838,1.2093232870101929,-0.06289176642894745,0.09395747631788254,1.3368772268295288,0.7164889574050903,0.08772803843021393,1.070968508720398,0.16887636482715607,-0.7651974558830261,-0.03784643113613129,-0.4825690686702728,-0.0070630707778036594,0.30924490094184875,0.6711617112159729,-0.1624753177165985,0.016896046698093414,-0.39681124687194824,0.827350914478302,0.04340798407793045,-0.5728915929794312,0.22587910294532776,-0.7638206481933594,1.0467396974563599,-0.35278573632240295,-0.878641664981842,1.6066229343414307,0.9202842712402344,0.44786393642425537,1.0641247034072876,0.1479395031929016,-0.2951835095882416,0.5784755349159241,0.552152156829834,-1.2599350214004517,0.3865809738636017,0.4580366611480713,-1.4503021240234375,0.0452999509871006,-0.8248299360275269,-0.17950591444969177,-0.1604137271642685,0.6494390368461609,0.21384505927562714,0.6327908635139465,-0.32809728384017944,0.23424597084522247,-0.5801366567611694,0.23447154462337494,-0.09944523125886917,0.04840153455734253,-0.6789326071739197,0.4428764581680298,0.47187331318855286,-0.7291461825370789,0.29486390948295593,-0.520298421382904,-0.5257434248924255,-0.5002065896987915,1.0472434759140015,-1.46103835105896,0.06834771484136581,-0.32535696029663086,-0.4274349808692932,-0.5118306875228882,-0.3822125792503357,-0.7965653538703918,1.0445951223373413,-0.7660766243934631,-0.44658416509628296,1.6266872882843018,0.33306485414505005,0.43182456493377686,0.8736776113510132,0.11845306307077408,0.5360884666442871,0.5471391677856445,0.4279014468193054,-0.177596315741539,0.1013767346739769,-0.35789382457733154,-0.3975498080253601,0.6153555512428284,-0.29786431789398193,-0.6039066910743713,-0.07078923285007477,-0.11706419289112091,-0.29547643661499023,0.5049077272415161,-0.8359457850456238,-0.35350966453552246,-0.6552485227584839,-0.8485448360443115,0.11644309014081955,0.42349138855934143,-0.47545182704925537,-0.493295282125473,-0.7632336020469666,-0.9247921109199524,-0.5573672652244568,0.7192796468734741,-0.39708346128463745,0.15326611697673798,0.4886876344680786,0.22572383284568787,0.3278405964374542,0.8849266767501831,0.22794200479984283,0.28226450085639954,0.7801365852355957,0.14443708956241608,-0.31347259879112244,1.0851346254348755,-0.02791796438395977,-1.381089687347412,-0.3046237528324127,-0.9294102787971497,-0.3718060851097107,0.7075101137161255,-0.5298589468002319,0.44587358832359314,-0.34957924485206604,0.271668940782547,1.1548855304718018,0.7614080309867859,-0.12364701181650162,0.105739526450634,-0.7263582944869995,0.4274313449859619,1.41877019405365,1.1871258020401,0.41848573088645935,1.1366466283798218,0.15351353585720062,0.2989276647567749,-0.7246167063713074,0.07483411580324173,0.08112113177776337,-0.29891934990882874,-1.358558177947998,0.28978171944618225,-0.5466457605361938,0.6563736200332642,-0.1932506263256073,0.2898852229118347,0.11498182266950607,-0.37364882230758667,0.8526216745376587,0.783706784248352,0.08337723463773727,0.17836657166481018,-0.07694018632173538,0.5232203602790833,-1.029582142829895,0.5250982642173767,0.21635779738426208,-0.41384100914001465,0.06939763575792313,0.7163693904876709,-0.8344017267227173,0.002671279711648822,-0.4549584984779358,-0.1907157599925995,1.0033879280090332,-0.04580370709300041,0.5804224014282227,0.4293929934501648,0.06136893108487129,-0.7009527683258057,0.6094226241111755,0.18349985778331757,-0.0417022779583931,-0.8358013033866882,0.40731680393218994,-1.1697378158569336,0.01784234307706356,-0.4807679057121277,-0.5796172022819519,0.899873673915863,0.24647121131420135,-1.0359452962875366,0.6763787269592285,-0.5695483684539795,0.5847669839859009,0.19645936787128448]},"cellActivationHidden":{"rows":20,"columns":20,"weights":[-0.16856935620307922,0.616142988204956,-0.7040926814079285,-0.10240061581134796,1.3455736637115479,-0.14110568165779114,0.11386607587337494,-0.29802724719047546,-1.2254656553268433,-0.0008815585752017796,0.043290287256240845,-0.4478146731853485,0.51771479845047,-0.34576985239982605,1.0511642694473267,-1.165500283241272,-0.5652019381523132,-0.9409695267677307,-0.9486794471740723,0.6525893211364746,-0.22334368526935577,-0.9814144372940063,-0.8017684817314148,-0.5008936524391174,1.2254029512405396,-0.850297212600708,0.40114495158195496,-0.1863095462322235,0.09760382026433945,-0.6077607870101929,0.3055516481399536,-0.32592007517814636,-0.1891760230064392,-0.27656057476997375,0.11487776786088943,-1.3079123497009277,-0.7586963772773743,0.31152310967445374,-1.179421305656433,1.3069610595703125,0.563457190990448,0.26910674571990967,-0.8106287717819214,0.16634294390678406,-0.12313693016767502,0.48989003896713257,-0.6680777072906494,0.24125462770462036,-0.18439050018787384,0.7673741579055786,0.5581444501876831,-0.8328091502189636,0.36151358485221863,0.1013963595032692,0.10763758420944214,-0.13120439648628235,0.16051127016544342,-0.8429753184318542,-0.036294519901275635,-0.5291650295257568,0.6542050838470459,0.04090079665184021,-1.3559280633926392,-0.11002402752637863,1.5546542406082153,-0.02445075288414955,-0.3648906350135803,-0.0730108842253685,-0.5975304245948792,-0.029600730165839195,0.3329807221889496,-0.02566678263247013,0.40411457419395447,0.366422563791275,0.43180105090141296,-1.8839610815048218,-0.26529234647750854,0.009665366262197495,-0.8935203552246094,0.7034751772880554,-0.6775323152542114,-0.3403438627719879,-0.10871065407991409,-0.210361510515213,-1.164291262626648,-0.580385148525238,0.9956205487251282,0.007899525575339794,0.9440685510635376,0.01656138338148594,0.6498756408691406,0.3275439739227295,-0.6801513433456421,0.9980640411376953,-1.7014658451080322,1.2007917165756226,-0.7606003880500793,-0.380336195230484,-0.7810044288635254,1.8314054012298584,-0.24943424761295319,0.4537203907966614,-0.9595222473144531,-0.14840053021907806,1.716220498085022,-0.5109381079673767,0.06431303918361664,-0.6407794952392578,-0.9245635867118835,-0.1271447390317917,0.7077271342277527,-0.6390110850334167,0.6153212785720825,0.5633128881454468,0.655353307723999,-1.537340521812439,-0.3988434672355652,-0.5402461886405945,-0.7413054704666138,1.128331184387207,-0.6814855933189392,-0.735700249671936,0.8507702350616455,-1.1369060277938843,-0.640841543674469,-0.6018977165222168,0.2516586184501648,0.2766968309879303,0.8472565412521362,0.24560558795928955,-0.7245224118232727,0.8799403309822083,-0.01382481399923563,-1.2383835315704346,-1.017545461654663,1.7131150960922241,-0.03339144214987755,0.45046815276145935,0.7329626083374023,-0.3735128343105316,0.4471292793750763,-0.13623613119125366,0.47254297137260437,0.13629040122032166,-0.008802116848528385,0.23075422644615173,-0.9702158570289612,-0.2748996317386627,-0.14748525619506836,-0.07863890379667282,0.7000146508216858,-0.9654360413551331,0.5203115940093994,-0.12124059349298477,0.5372758507728577,-0.6423442959785461,0.5937056541442871,0.05931859463453293,-0.0009809284238144755,-0.09303860366344452,0.3264784514904022,1.147131085395813,0.17702792584896088,0.764627993106842,-0.1590423583984375,0.10525179654359818,0.05605968087911606,1.231245756149292,1.5660496950149536,0.130066379904747,-0.16566699743270874,0.12671974301338196,0.11520016938447952,1.0169787406921387,-0.5407441258430481,0.9625101685523987,0.7865143418312073,1.3206276893615723,0.8821293711662292,-1.4552111625671387,0.5092018246650696,0.045373257249593735,-1.2151217460632324,0.16224755346775055,1.1313849687576294,-0.15739470720291138,0.27402058243751526,-0.7192863821983337,-0.308982253074646,0.15967486798763275,0.6472509503364563,-0.6347665786743164,0.28375229239463806,0.5509526133537292,0.5586912631988525,-1.5487860441207886,0.21329748630523682,-0.1650959998369217,-0.6417879462242126,0.6018049716949463,-0.6432543992996216,-1.193487524986267,-0.971776008605957,-1.66599702835083,-0.7615299224853516,-1.3186558485031128,1.100105881690979,0.55342036485672,0.7897588610649109,-1.4145077466964722,-0.5646812915802002,0.4663463830947876,-1.6656748056411743,2.5010299682617188,-1.0306439399719238,-0.07442580163478851,-1.8948851823806763,0.2967087924480438,0.0827290415763855,-0.00028092259890399873,1.0059864521026611,0.7408950924873352,1.6412349939346313,0.5126858949661255,0.14160239696502686,0.7521045804023743,-0.5887935757637024,0.626319944858551,-0.6797842383384705,1.1204711198806763,0.5992633104324341,0.6729658246040344,1.4851452112197876,-1.4951053857803345,1.4983633756637573,0.3763969838619232,1.5077877044677734,0.6006615161895752,0.9641891717910767,-0.48857438564300537,-0.3564950227737427,-0.9102941155433655,-0.425626665353775,-0.9797375798225403,0.4436750113964081,-1.2496118545532227,0.5902484655380249,-0.6754409074783325,-1.3994998931884766,-0.9476915001869202,0.5580689907073975,-0.7606390118598938,-0.714543342590332,0.6316813826560974,0.828086256980896,-0.6167789101600647,-1.1532539129257202,-0.7120503783226013,-0.5279439091682434,1.0281318426132202,0.0468408577144146,-0.13413351774215698,-0.36665722727775574,-0.14937159419059753,-1.6576645374298096,0.8133090138435364,-0.6946756839752197,1.0939615964889526,0.9455525875091553,0.23737981915473938,-0.9121625423431396,0.8482964038848877,0.07541567087173462,-0.0973794236779213,-0.6507972478866577,0.34661051630973816,0.3318294882774353,1.0779024362564087,0.9328428506851196,-1.1430705785751343,-0.17243050038814545,-0.44443610310554504,-0.8249757885932922,-0.5411818623542786,-0.06524909287691116,-0.13467080891132355,-0.28430482745170593,-0.24089008569717407,-1.824005126953125,-0.16217879951000214,-1.286112904548645,0.38341113924980164,-0.5643162131309509,-0.5515552759170532,1.1059482097625732,-0.35760387778282166,-0.6406083703041077,-2.1161201000213623,-0.4432881772518158,-0.3971351683139801,0.7682304978370667,0.056179363280534744,0.6537366509437561,0.2845538854598999,-0.18538616597652435,0.3733578622341156,-1.0452643632888794,-0.18746452033519745,-0.4335050582885742,0.9737626314163208,0.25600579380989075,-0.3402678072452545,0.1640050709247589,0.8283483386039734,0.08665083348751068,-0.4495032727718353,0.13047721982002258,-0.6366678476333618,0.4354671537876129,-1.455305576324463,0.05477144569158554,0.33334115147590637,-1.534773826599121,-0.4106370210647583,1.808694839477539,-0.5847708582878113,-0.07828658819198608,-0.474318265914917,-0.7840384840965271,-0.44250959157943726,1.0005735158920288,-1.178155779838562,0.77034592628479,0.7566000819206238,1.017987847328186,-2.298442840576172,-0.788219153881073,-0.8534150719642639,-0.8356940746307373,1.6356635093688965,0.5609898567199707,0.9229344725608826,0.41987231373786926,1.2542803287506104,-0.007689227350056171,0.8283820152282715,-0.5094729065895081,0.28173375129699707,0.531704843044281,0.9047771096229553,-0.9075160622596741,0.5066136121749878,1.0214804410934448,-0.07174280285835266,-0.6897616386413574,0.5405470132827759,1.5506675243377686,0.4752159118652344,0.7396017909049988,-0.7226104736328125,0.006242977920919657,-0.22247199714183807,0.1640682816505432,-0.31834936141967773,-0.5343071818351746,-0.017456695437431335,-0.37159332633018494,0.13305635750293732,-0.31108102202415466,0.34583497047424316,-0.6329082250595093,1.2559139728546143,0.18087619543075562,0.025751899927854538,2.56697154045105,-0.30312201380729675,-0.21373741328716278,-0.13500858843326569,1.4133751392364502,-0.4565151333808899,-0.6507357358932495,-0.06875209510326385,0.1931602954864502,-0.525309145450592,-0.43009352684020996,-0.6293400526046753,0.9172996282577515,0.9247696399688721,0.4880136251449585,0.31068116426467896,-0.7910469770431519,1.3420478105545044,-0.6528709530830383,-0.9550736546516418,-1.3596041202545166,1.1249279975891113,-0.4494970440864563,0.7154722809791565,-0.49873867630958557,-0.21940675377845764]},"cellActivationBias":{"rows":20,"columns":1,"weights":[0.41477170586586,-0.3956599235534668,0.6561530232429504,-0.3932930529117584,0.21824800968170166,-0.356950968503952,0.27545562386512756,-0.07376443594694138,0.6985277533531189,0.0012020475696772337,0.12326449155807495,-1.0862596035003662,-0.5477381348609924,0.6472550630569458,-0.40329763293266296,0.4979311525821686,-0.4980141818523407,0.42345860600471497,-0.1499544233083725,-0.9281405806541443]}},{"inputMatrix":{"rows":20,"columns":20,"weights":[-0.10328079015016556,0.7356241941452026,-0.793394148349762,0.5239309072494507,1.259659767150879,0.39677947759628296,1.0381067991256714,-0.6161112189292908,-1.3200105428695679,0.11917074769735336,0.9596521854400635,-0.36858996748924255,1.3391553163528442,0.7703484296798706,1.144103765487671,-1.6935443878173828,0.44326871633529663,-1.0116125345230103,-1.037214994430542,1.7806636095046997,0.9927791357040405,-0.14222487807273865,-1.2903270721435547,0.7138155698776245,1.1482852697372437,1.2085139751434326,-0.07466204464435577,-1.2044483423233032,-1.90028977394104,-1.6785722970962524,0.6695225238800049,0.06518642604351044,0.4663611650466919,-0.48193874955177307,2.4329304695129395,-2.6383984088897705,1.4842451810836792,1.0980534553527832,0.1416289061307907,1.2334907054901123,-0.37946540117263794,-1.1430950164794922,0.16219168901443481,-0.37322065234184265,0.05788367986679077,-0.5098249316215515,0.5805084109306335,0.48293256759643555,0.4510589838027954,0.40827640891075134,-0.630305290222168,-0.3666045069694519,-1.014835238456726,-2.521235942840576,-0.9065676331520081,-0.18171028792858124,-0.805152177810669,1.2514917850494385,-0.11317936331033707,-0.14038372039794922,-0.048959050327539444,-0.8037287592887878,0.5824688076972961,-0.8906020522117615,-0.2755630314350128,-0.852250874042511,0.17304661870002747,0.30174678564071655,0.5577999353408813,-0.4003089666366577,-0.5184078812599182,0.1298874318599701,-0.7772312164306641,-0.8407868146896362,-1.3257688283920288,1.4770572185516357,-0.36160412430763245,1.543792963027954,0.41134005784988403,-1.1050480604171753,1.6898545026779175,0.787000298500061,-1.4184067249298096,1.1666162014007568,1.701225757598877,1.1106088161468506,-0.08952661603689194,-1.2091351747512817,-0.5145348310470581,-0.2491132915019989,-0.06877671182155609,1.3908700942993164,-0.03952648118138313,-0.7806534767150879,0.7664769887924194,-1.6681156158447266,0.981452226638794,0.6425557136535645,-0.050595473498106,0.8312665820121765,1.4055802822113037,1.9041516780853271,-0.6733044385910034,2.02736496925354,0.5427849888801575,1.4615658521652222,-0.31328901648521423,-0.9326645135879517,-0.7581469416618347,0.8735043406486511,0.4874419569969177,-0.33269503712654114,0.8389535546302795,-0.10831297934055328,-0.09741883724927902,-1.3997292518615723,1.8331741094589233,0.177298903465271,-0.33721649646759033,0.6963630318641663,0.15673808753490448,-0.14700917899608612,-0.04187379404902458,0.6971824169158936,0.1156291589140892,0.3242054283618927,0.7615917325019836,-0.914192259311676,-0.5838749408721924,-0.5625448226928711,-0.057981446385383606,0.29902034997940063,0.022548871114850044,-0.8542303442955017,0.5453200340270996,-0.3639843463897705,0.5618558526039124,0.9656381011009216,-1.1617602109909058,0.9593665599822998,0.4606788158416748,-0.15388673543930054,0.9219207763671875,-0.27537107467651367,-0.9058516025543213,0.2804849147796631,-0.6546281576156616,0.2811970114707947,0.08338671922683716,-0.23271413147449493,1.3526259660720825,0.15180914103984833,0.5078843235969543,-1.1398011445999146,-0.5847063064575195,1.113809585571289,0.21870622038841248,0.5608261227607727,0.7071390151977539,-1.3471348285675049,-0.6427929401397705,-0.9670270085334778,0.11730273067951202,-0.7665967345237732,0.1996261477470398,-0.49122050404548645,0.8856489658355713,0.22757327556610107,0.9140996336936951,0.19604676961898804,-0.5785585641860962,0.9410750865936279,-0.47286757826805115,-1.8445276021957397,-0.6600396037101746,-0.1666051745414734,-1.2544971704483032,1.2117027044296265,-0.07652744650840759,0.45215922594070435,0.5462609529495239,-0.8546764850616455,0.17845292389392853,0.23388157784938812,-1.4961405992507935,1.0613468885421753,-1.1802961826324463,0.8331838846206665,-0.4652881324291229,-0.10768981277942657,1.2140989303588867,-1.3618016242980957,0.2040117383003235,-1.8982305526733398,-0.35998234152793884,0.8399966359138489,-0.3950358033180237,-0.695077121257782,0.8916046023368835,-0.9079292416572571,1.1506104469299316,0.5845311880111694,-1.4672526121139526,1.1308033466339111,0.497140496969223,1.1804835796356201,0.3328946828842163,-1.237584114074707,-1.0978124141693115,0.1602834314107895,-1.1112269163131714,-0.1287907361984253,0.35881736874580383,0.46045541763305664,1.242038369178772,-2.384502410888672,0.9598231911659241,0.2000083327293396,-0.36276736855506897,1.265749216079712,-0.6533663272857666,-1.0647717714309692,-0.44016191363334656,-0.6965464949607849,0.4683431088924408,-0.5614404678344727,0.9127955436706543,0.8093255162239075,0.7404636740684509,0.12360873073339462,-0.5154688954353333,1.1800824403762817,-0.5039905905723572,-2.957488775253296,0.4888473153114319,-0.7746171951293945,-0.822799801826477,1.9756165742874146,0.1795390546321869,0.8813630938529968,0.2433396726846695,2.4122977256774902,-0.6040538549423218,1.0058077573776245,1.5341918468475342,0.49142763018608093,0.14763224124908447,-0.1648203581571579,-0.0834193155169487,1.4926811456680298,1.2190011739730835,1.772597312927246,0.8494570255279541,-0.35382670164108276,-2.958266496658325,-0.5233169794082642,0.18870265781879425,0.7022333145141602,-2.1937341690063477,0.6633212566375732,0.451456755399704,-0.9756231904029846,1.08595609664917,-0.2485264092683792,-1.3373690843582153,-0.1515624225139618,0.6040651798248291,2.032026767730713,-0.6098765730857849,-0.5642580986022949,2.2043111324310303,-0.06892538070678711,-0.5265811085700989,0.8135993480682373,-1.4425249099731445,1.8520065546035767,0.18947546184062958,-0.4841575026512146,1.3835837841033936,-0.6852709054946899,0.296805202960968,0.438217431306839,-0.9668332934379578,0.5719420909881592,0.3596046566963196,0.28551438450813293,-0.20890112221240997,-0.6296250224113464,0.2288937121629715,0.7577439546585083,-0.632559597492218,-0.3218216896057129,0.009370098821818829,-0.3149234652519226,1.8823790550231934,-1.1833038330078125,0.6958019733428955,1.0561376810073853,0.48764628171920776,0.7614690661430359,-0.3451748192310333,-0.6682654023170471,-1.0133554935455322,-0.7441840767860413,-1.8795171976089478,0.1638028770685196,-0.19920367002487183,0.5214444398880005,-0.1924433410167694,-0.9655093550682068,1.5109846591949463,-1.2458168268203735,0.8896874189376831,0.2607858180999756,1.1138746738433838,-0.3528432548046112,-0.1791464239358902,-0.24331341683864594,1.9632383584976196,1.0744863748550415,0.5359317660331726,0.4146043658256531,-0.5366258025169373,1.1975516080856323,-0.26030150055885315,1.5649306774139404,-0.4854951798915863,-0.36114075779914856,-2.400092363357544,3.505376100540161,0.5042126774787903,0.9655196666717529,1.4686132669448853,0.1673586070537567,-1.580530047416687,0.10424897819757462,0.6798989176750183,-1.2087939977645874,0.032464221119880676,-0.07808458805084229,-0.1276485174894333,-0.252540647983551,0.5859118700027466,-0.18474549055099487,-0.8896282315254211,-0.05819861218333244,0.19852735102176666,0.32785841822624207,-0.36788836121559143,-0.3524855077266693,0.023288466036319733,1.2512518167495728,0.5018361806869507,-0.6053720116615295,-1.2148813009262085,1.490548849105835,0.7439167499542236,0.8510429263114929,0.5946981310844421,-0.8076487183570862,-0.42609351873397827,-2.2159385681152344,0.4249698221683502,-0.7714678049087524,-1.0999137163162231,-0.2772658169269562,0.49763351678848267,0.5004279017448425,0.375456839799881,-1.7007250785827637,0.06423189491033554,1.7294349670410156,-1.0669317245483398,-1.5633682012557983,-0.8081526160240173,0.24878185987472534,-0.5050727725028992,1.1219135522842407,2.7970707416534424,0.062350381165742874,-0.6505481600761414,-0.5363035202026367,0.8871517181396484,-0.012159205041825771,-0.39914584159851074,-0.38566815853118896,0.583118200302124,0.22913013398647308,-1.0263957977294922,-0.4488001763820648,-0.16890820860862732,0.17382878065109253,-0.1352405846118927,0.12594640254974365,0.28027859330177307,0.793929398059845,-0.04920873045921326,-0.061933938413858414,0.6576323509216309,0.9619220495223999]},"inputHidden":{"rows":20,"columns":20,"weights":[-1.2096858024597168,-0.5767477750778198,0.9399352669715881,0.05389370769262314,0.38619357347488403,0.05741115286946297,-0.9258690476417542,0.04720796272158623,1.172258973121643,-0.004913222510367632,0.5474402904510498,-1.2101632356643677,0.604044497013092,-0.4131791889667511,0.15094439685344696,-0.30360740423202515,-1.029615879058838,0.3543968200683594,-0.7859197854995728,-0.8416848182678223,-0.659946620464325,0.12029701471328735,0.9102110862731934,-0.703373908996582,0.9306046366691589,-1.3647005558013916,0.7102323174476624,-1.2528045177459717,0.612089991569519,-0.31430524587631226,-1.0244172811508179,-1.289965033531189,0.23445650935173035,0.635248601436615,-1.0859575271606445,0.42062297463417053,0.47436484694480896,-0.5869149565696716,0.11313537508249283,0.4086918234825134,0.3174172341823578,0.08229778707027435,-0.5155083537101746,1.1823371648788452,-1.3211090564727783,-1.0398039817810059,-0.4270607829093933,-1.0269908905029297,-0.555040180683136,1.5708153247833252,-0.74098140001297,0.7445108294487,-2.411271572113037,-0.392568975687027,0.036138225346803665,-0.7058221697807312,-0.27337923645973206,1.0694328546524048,1.1243488788604736,-0.07936491072177887,0.0958808958530426,-0.17481958866119385,0.16509580612182617,0.32994669675827026,1.0237584114074707,0.3358556032180786,0.541289746761322,-0.6569863557815552,-0.025843387469649315,0.3613099753856659,1.0784592628479004,-0.37181568145751953,0.9065609574317932,1.081895351409912,0.4731423854827881,0.7948377728462219,-0.057799454778432846,0.557772159576416,-0.06355459243059158,-0.29924026131629944,-0.2623366713523865,3.2646985054016113,0.9612852334976196,0.06147969886660576,0.4910529553890228,-1.3207272291183472,2.564378023147583,-0.8937776684761047,1.0533788204193115,0.2346835434436798,-0.7612390518188477,-1.3504865169525146,0.032659001648426056,1.6631311178207397,-3.1135616302490234,1.1022388935089111,0.8593802452087402,0.4639699459075928,-0.26921582221984863,1.538071632385254,-0.6997892260551453,1.6554640531539917,1.8684064149856567,0.023997733369469643,0.5370407104492188,-1.7150635719299316,1.0948741436004639,-0.6709837317466736,1.3529683351516724,0.714295506477356,0.21787461638450623,-1.4017828702926636,-2.343773126602173,-0.10788947343826294,-2.410378932952881,1.8584967851638794,0.8691403269767761,-0.08569248765707016,-0.6939722299575806,1.0115522146224976,-0.69856196641922,-0.8437765836715698,-0.21335753798484802,0.6224283576011658,-0.27118366956710815,-1.0157084465026855,-0.6386968493461609,-1.2829408645629883,-1.113017201423645,2.2004740238189697,1.2064152956008911,-0.4301545023918152,-1.3347710371017456,3.4573493003845215,1.7503656148910522,0.3300212621688843,0.6168190836906433,0.5317201614379883,2.5742056369781494,-1.3485541343688965,0.015175853855907917,0.023896848782896996,-0.17632417380809784,-0.237173393368721,0.2455344945192337,0.04913006350398064,0.8752160668373108,-0.5235780477523804,-0.22294434905052185,0.17689910531044006,0.8615216612815857,-0.04121721163392067,0.7370305061340332,0.07486942410469055,-0.09809420257806778,0.09017355740070343,0.40556907653808594,1.050134539604187,0.32539400458335876,0.23381944000720978,1.0459312200546265,1.1609927415847778,-0.6432997584342957,0.9404277205467224,-1.0411298274993896,-1.0381102561950684,-0.9098235964775085,-0.22486789524555206,-1.1465296745300293,0.45861029624938965,-0.7832738161087036,0.43041983246803284,0.735956072807312,1.1875152587890625,-0.5666679739952087,-0.8261523246765137,-0.7392840385437012,0.9042773842811584,1.2702568769454956,-1.5582505464553833,-0.9968701601028442,-0.3912040591239929,-0.3269987106323242,-0.658543586730957,0.1742192804813385,0.8085364103317261,0.6510676145553589,-1.083643913269043,-0.3128998577594757,1.3667188882827759,1.3813772201538086,-0.11329646408557892,-0.7146917581558228,-0.8501858115196228,-0.024404650554060936,-0.8105184435844421,-0.41575467586517334,0.3549444079399109,0.28839972615242004,0.578819990158081,1.102196455001831,1.0014103651046753,0.03316790238022804,-0.34755703806877136,0.32286909222602844,-0.2428635209798813,0.4870275855064392,-0.41951945424079895,-0.07340647280216217,-0.22167858481407166,-1.25212562084198,-0.22609248757362366,0.8688083291053772,1.1716135740280151,-1.782511830329895,0.015375669114291668,0.0636311024427414,-0.17930252850055695,-0.3428047299385071,0.5508071780204773,-0.07418788969516754,0.10118068754673004,-1.551109790802002,0.5112074613571167,-0.16661225259304047,0.056665681302547455,-0.4802725613117218,-1.0061756372451782,-0.14549367129802704,1.293615698814392,-1.5171945095062256,1.0699831247329712,-0.7294754385948181,-0.02998586930334568,0.3195919394493103,-0.8397133350372314,0.05837180092930794,0.5260106325149536,1.7068791389465332,-0.40074655413627625,0.38463956117630005,2.073683738708496,0.7011756896972656,1.311907172203064,-0.9762887954711914,-0.28678861260414124,0.07688607275485992,-0.6078541278839111,0.8249093294143677,1.0589255094528198,-0.8044459223747253,-1.1088038682937622,-1.2793407440185547,0.5288286805152893,-2.1783664226531982,0.47501081228256226,1.1557908058166504,1.475433349609375,-0.30868834257125854,-0.5360025763511658,0.8438576459884644,0.2772233188152313,-0.8250184059143066,-0.691121518611908,0.13177204132080078,0.5036522746086121,1.723082184791565,-0.0607120506465435,-0.6777434945106506,0.1547258347272873,0.9076969027519226,0.43478456139564514,-0.46740370988845825,0.536001443862915,-0.31693193316459656,2.1510698795318604,1.0220755338668823,0.37194353342056274,0.9019622802734375,0.3905595541000366,-1.9551093578338623,-0.9211477041244507,1.0196996927261353,-0.2241695672273636,-1.1768372058868408,-1.209310531616211,1.1451926231384277,0.11719236522912979,0.7333517074584961,-0.23240625858306885,-0.24078544974327087,-1.749002456665039,-0.22615957260131836,2.084887742996216,-0.2982354760169983,-0.3906995952129364,3.543475866317749,-1.0431808233261108,0.2865540385246277,2.0510003566741943,-1.2107340097427368,-0.5250827670097351,-0.08899438381195068,0.11626674979925156,2.204657793045044,-1.0021533966064453,-0.5248173475265503,-0.5904321670532227,-1.003075361251831,0.7529687285423279,1.1471447944641113,-0.33091118931770325,0.6021544933319092,1.4381208419799805,1.5366140604019165,-0.3787904679775238,-0.8892381191253662,0.5235071778297424,2.593863010406494,-1.7195922136306763,-1.3119146823883057,1.3423470258712769,-0.9332882761955261,0.14274726808071136,1.2253897190093994,-1.280547857284546,-0.1789599061012268,-0.5973731875419617,-1.5093196630477905,-0.2560192048549652,0.6270687580108643,1.06704580783844,0.6398293375968933,0.18037614226341248,-1.0911353826522827,0.9532071352005005,-1.172312617301941,0.25827762484550476,1.609718680381775,-2.2698123455047607,0.19447480142116547,0.44293412566185,-0.36738869547843933,-0.25470471382141113,0.7282876968383789,0.26122161746025085,0.29805684089660645,0.05548075586557388,-0.6481494307518005,-0.31357964873313904,0.8490148186683655,0.059002555906772614,1.496183156967163,0.8754733204841614,-0.08797380328178406,0.8274191617965698,-0.5541312098503113,0.16250358521938324,0.3242638111114502,-0.3859824538230896,1.9156649112701416,1.4970650672912598,-0.42796269059181213,0.0856759324669838,-0.451228529214859,-2.0903522968292236,0.05475382134318352,0.2414138913154602,-1.291806936264038,-1.2845710515975952,-0.45452845096588135,0.33858221769332886,2.8908543586730957,2.2089314460754395,-1.011769413948059,0.6947937607765198,0.2592225670814514,0.0945168286561966,1.7465689182281494,-0.5518014430999756,1.0544018745422363,0.722168505191803,-2.369051933288574,-0.054841041564941406,-0.29587122797966003,-0.925210177898407,-0.12371795624494553,-0.632052481174469,-2.27912974357605,0.5432246327400208,-1.800663948059082,2.2728710174560547,-0.1329803466796875,2.396759033203125,-1.6443448066711426,-0.2907593548297882,-1.0622203350067139,0.23719297349452972,2.7718653678894043,-0.9661824107170105]},"inputBias":{"rows":20,"columns":1,"weights":[-1.0894685983657837,-0.883146345615387,0.4736839830875397,1.1517491340637207,-0.7325042486190796,-1.0381056070327759,-1.5075773000717163,1.064030408859253,-0.025988329201936722,0.051627907902002335,-1.0670908689498901,-0.22460520267486572,-0.8132073283195496,-0.6985337138175964,-0.986343502998352,-1.167128086090088,-1.2963813543319702,0.3870887756347656,0.4672628939151764,-0.6586065292358398]},"forgetMatrix":{"rows":20,"columns":20,"weights":[-0.14068174362182617,-0.7244097590446472,0.21259844303131104,-0.24024339020252228,-1.7108547687530518,-0.17513857781887054,-0.16612865030765533,1.4771713018417358,0.37229204177856445,-0.3073960542678833,0.03987572714686394,-0.26012077927589417,-0.3427574634552002,0.4786734879016876,-0.06736453622579575,0.6588084101676941,-0.47810763120651245,0.3941144049167633,1.3617963790893555,-0.6020914912223816,0.7173252105712891,1.0622155666351318,1.5604221820831299,1.6261606216430664,-1.4449372291564941,0.9728105664253235,-0.7725940942764282,0.9246178865432739,0.8518547415733337,1.4884105920791626,0.5555981397628784,-0.40793684124946594,0.3597482740879059,0.8658009171485901,-1.2814749479293823,0.6954101920127869,0.4395327568054199,0.08148150146007538,0.9068026542663574,-1.0901600122451782,-1.3552621603012085,-0.9669804573059082,-0.9417482614517212,-1.5031262636184692,0.6378771662712097,-1.850376009941101,1.498106837272644,-0.43829602003097534,0.8229925632476807,-1.6652289628982544,-0.7119055390357971,0.5282939076423645,-1.2223776578903198,-1.910445213317871,0.6485210061073303,-1.3567137718200684,-1.3858847618103027,1.5054080486297607,-1.2617707252502441,1.2531601190567017,-0.6665605306625366,-0.765789270401001,-0.38124749064445496,-0.1851855218410492,-0.6907992362976074,-0.532231330871582,0.4159218370914459,1.1617066860198975,-0.44212737679481506,0.014803956262767315,1.3869861364364624,-0.7880198359489441,-1.0128432512283325,1.4629812240600586,0.013530159369111061,-0.603285551071167,-0.7434009313583374,-0.31030774116516113,0.8280382752418518,0.5482187271118164,1.3120722770690918,0.5668580532073975,-1.2754267454147339,0.5096290111541748,0.8736364245414734,1.6752572059631348,0.7462725043296814,-0.26645275950431824,-0.8265019059181213,0.5636600852012634,-0.5918316841125488,-0.7868461608886719,-0.5229882001876831,0.6346261501312256,1.2821338176727295,-1.0615756511688232,1.2572238445281982,0.2024211287498474,-1.3278698921203613,0.38140806555747986,0.42500683665275574,-1.4134798049926758,1.1000410318374634,-0.18595416843891144,-0.4872725009918213,1.1276215314865112,-1.281336784362793,0.7456876635551453,0.7540427446365356,0.5943094491958618,-0.40045931935310364,0.4576064944267273,0.5841732025146484,-0.914360523223877,-0.8971055150032043,0.913885772228241,0.5968846678733826,1.6311109066009521,1.1268306970596313,-1.480042815208435,1.1406588554382324,0.457278311252594,-0.24844829738140106,0.5904831290245056,0.5345128774642944,0.5535510778427124,-0.411758154630661,0.7506118416786194,1.062270164489746,-0.6066939234733582,-0.8840838074684143,0.9835602045059204,0.013854422606527805,-1.0588027238845825,-0.5586496591567993,-0.7187259793281555,0.7843945026397705,1.4338127374649048,0.8572536706924438,0.019096937030553818,-0.20477043092250824,0.12414892017841339,-0.5071055293083191,-0.21234804391860962,0.10330230742692947,0.17151007056236267,-0.2025887817144394,-0.7018468379974365,0.0373150035738945,0.35071322321891785,0.4637033939361572,-0.3613411486148834,-0.009825542569160461,0.3469127416610718,-0.2246823012828827,-0.39496752619743347,-0.48172760009765625,0.363709032535553,-0.5415277481079102,-0.20430664718151093,-0.9442954659461975,-1.2369654178619385,0.3163805305957794,-0.9681126475334167,0.3748370110988617,-1.101966142654419,0.6982313990592957,0.8002235293388367,1.312625527381897,-0.2870669960975647,-1.1673213243484497,-0.20659449696540833,-0.3395830988883972,-1.5152138471603394,1.034263014793396,-0.5907012820243835,-1.2494930028915405,1.8515955209732056,0.20191846787929535,0.36944952607154846,-0.1228870302438736,0.08205177634954453,-1.101592779159546,0.6163796782493591,1.0329095125198364,0.2093113511800766,0.05372294783592224,-0.5885654091835022,-0.6473821401596069,0.0669826790690422,0.9715933203697205,-0.40753230452537537,-0.2651825249195099,0.36317476630210876,-0.8045772314071655,-0.3523441553115845,0.01259449403733015,-0.21979719400405884,-1.497949481010437,0.32789769768714905,0.04529988393187523,0.2580517530441284,-0.3094029724597931,-0.5722119808197021,-0.0445023775100708,0.0035384921357035637,-0.12013774365186691,-0.731847882270813,-0.1975410282611847,0.1832166612148285,0.44458600878715515,-0.48455899953842163,1.09678316116333,0.952129602432251,0.24280668795108795,0.12659478187561035,-0.4671207070350647,0.4740044176578522,-0.560106635093689,-0.25237423181533813,-1.1266804933547974,-0.5987828969955444,-1.7999755144119263,-1.8478397130966187,0.3590340316295624,-2.5013232231140137,2.136460542678833,-0.74070805311203,1.2219992876052856,-1.4016212224960327,-0.5938180685043335,-0.08524219691753387,-1.2644890546798706,-2.404081106185913,0.31431859731674194,-1.5736734867095947,-1.5429189205169678,1.6664849519729614,-2.4413557052612305,1.3612903356552124,-0.7332879900932312,-2.3991475105285645,0.2801198661327362,-1.9127497673034668,-0.1967880129814148,-1.1022647619247437,0.2607503831386566,0.7194730639457703,1.1149541139602661,-1.1344249248504639,0.813366174697876,-0.5265741348266602,-2.1299450397491455,-0.2321024090051651,0.08128155022859573,-0.428151935338974,-2.4279792308807373,2.0989601612091064,0.6941413879394531,0.6638309955596924,1.7218894958496094,1.6645541191101074,-2.1910977363586426,1.7053117752075195,0.4553259015083313,1.2069659233093262,-0.5496816039085388,-1.1268545389175415,-0.056236863136291504,0.8385587930679321,-1.1928905248641968,0.04604239761829376,0.4796987473964691,-0.18274466693401337,1.9234085083007812,-2.1286723613739014,1.4387094974517822,0.05021478608250618,-1.5305883884429932,-0.3843962550163269,1.0430381298065186,-0.18157091736793518,-0.35666075348854065,0.45854833722114563,0.7201811075210571,1.1057510375976562,-0.036481551826000214,-0.1864314079284668,-0.8387951850891113,-0.0639369934797287,0.961847186088562,-0.024995386600494385,1.0216444730758667,0.5762116312980652,-0.8589075207710266,-1.0304160118103027,1.3702679872512817,-1.1407722234725952,-0.7385849952697754,-0.5764249563217163,0.35166439414024353,-0.1975984424352646,1.4891018867492676,0.3215166926383972,-0.37503165006637573,-0.0009844531305134296,0.18271033465862274,0.3128049671649933,0.5825138092041016,-0.5240135192871094,-0.38320282101631165,1.1809686422348022,-0.31320881843566895,-0.8834212422370911,-0.08141283690929413,0.7230178713798523,0.5521258115768433,1.0696630477905273,0.19765464961528778,-0.5055931806564331,0.2715567946434021,0.8508098125457764,-0.6868258714675903,-0.3595241904258728,0.9293528199195862,0.6020843386650085,0.6664225459098816,-0.13167229294776917,1.052302360534668,-0.1674182116985321,0.2735775113105774,2.46968412399292,1.2616814374923706,0.5690640211105347,-0.252938449382782,-1.2610505819320679,1.0044159889221191,2.19157338142395,0.042981527745723724,1.1934701204299927,-1.4870941638946533,-1.6213728189468384,1.4169411659240723,-1.8408764600753784,-0.31145238876342773,-1.8010774850845337,1.1716251373291016,0.23405927419662476,-0.6499830484390259,-1.419400691986084,1.0638865232467651,-0.6391867399215698,-1.2722768783569336,0.910023033618927,-0.05692373588681221,1.0094443559646606,-1.3133678436279297,0.11937365680932999,1.1356699466705322,-0.7354725003242493,0.1451660692691803,-0.5365321636199951,0.26558539271354675,0.347514271736145,-1.909770131111145,0.15072309970855713,-0.2430691123008728,0.5917553305625916,0.3650630712509155,-0.5192462205886841,-0.9972453713417053,1.164137840270996,0.2542352080345154,-1.1069508790969849,1.7013527154922485,-0.7382630705833435,0.5290412902832031,1.2197297811508179,1.7865773439407349,-0.4021594226360321,1.0223662853240967,0.5453000664710999,0.40991926193237305,1.0538225173950195,-0.09010228514671326,0.8513551950454712,-0.10347922891378403,0.5153961777687073,0.3537277281284332,-0.021873317658901215,-1.4543445110321045,0.7713909149169922,0.4564857482910156,-1.0909217596054077,0.5004143714904785,-0.5728604793548584,0.8143802285194397,0.7149658203125,-0.4767385423183441,-0.5654261112213135]},"forgetHidden":{"rows":20,"columns":20,"weights":[1.0147680044174194,0.48525935411453247,-1.9396519660949707,-0.3524149954319,-0.6298871636390686,-0.05827002972364426,0.5108407139778137,-0.33577027916908264,-1.457035779953003,0.5888487100601196,-1.161685824394226,1.8817585706710815,0.22133506834506989,-0.1747576743364334,-0.18363219499588013,-0.0814969539642334,0.29122409224510193,-0.44205549359321594,0.840067982673645,0.31269776821136475,0.2572135031223297,0.7481142282485962,-1.8120882511138916,-0.3861263692378998,-1.3255971670150757,0.527564287185669,-0.2989586889743805,0.8372074365615845,-1.6266894340515137,0.001802909537218511,-0.2534123659133911,2.0339081287384033,-0.9602104425430298,-0.03078565001487732,-0.21647581458091736,-0.4253973364830017,0.2417806088924408,-0.28856804966926575,1.983185887336731,-0.8620442152023315,0.5561417937278748,0.08828539401292801,-0.06658916920423508,-0.3413538634777069,-0.8973501324653625,-0.9591901898384094,-0.45617854595184326,1.0158450603485107,-0.37634411454200745,-0.3701820969581604,0.2534864842891693,-0.03419221192598343,-0.5347115397453308,0.6516361832618713,0.1619153469800949,0.6203466653823853,-0.40398913621902466,-1.3029576539993286,1.4081330299377441,-0.30022451281547546,-0.032590992748737335,0.9500740170478821,0.9613903760910034,1.4632377624511719,0.010900229215621948,-0.2357833832502365,-0.1673092544078827,-0.3723900318145752,1.4240461587905884,0.4369226098060608,0.938440203666687,-1.0220320224761963,0.8121572732925415,0.3422442674636841,-0.20103493332862854,-0.7270865440368652,-0.6545361280441284,1.56932532787323,-1.175153136253357,-0.9410315155982971,1.0909602642059326,1.4202771186828613,-0.5786792039871216,-0.3104230463504791,0.09407632797956467,1.5796527862548828,1.388749361038208,-0.24009163677692413,-0.6598907113075256,0.7582069635391235,0.263277143239975,0.8503375053405762,-0.8614628314971924,0.3851262629032135,-0.025200676172971725,-0.2819644808769226,-1.5344008207321167,-1.384556770324707,0.3859449028968811,0.3643578886985779,0.21252918243408203,-0.24197709560394287,-0.853946328163147,-0.31793859601020813,0.24211397767066956,-1.4009593725204468,-0.23650571703910828,0.43005722761154175,-1.2676818370819092,0.12069997191429138,-0.5657832026481628,0.6813861131668091,0.7417647838592529,0.5425553321838379,-0.048833418637514114,-0.09520779550075531,-0.33951815962791443,-0.2021845430135727,1.1507792472839355,-0.8207130432128906,0.4930651783943176,0.917750895023346,-0.5560081601142883,-1.3205633163452148,-0.6957189440727234,-0.5468653440475464,0.6358477473258972,0.9505907297134399,-0.3118858337402344,-0.7409200668334961,-1.235477328300476,0.5316345691680908,0.3460293710231781,-0.34286007285118103,-0.5775964260101318,0.48886388540267944,0.31683993339538574,-1.1088387966156006,0.6893780827522278,0.7737728953361511,-0.3155873119831085,-0.47069358825683594,-0.06327042728662491,1.6461595296859741,0.25970134139060974,-0.19604603946208954,-0.12298479676246643,-1.5942744016647339,0.2943437397480011,1.2270207405090332,0.06196196749806404,-0.3549656867980957,-0.0159348975867033,-0.1565040946006775,0.5884214639663696,-0.06408365070819855,0.06476084887981415,1.764070987701416,-0.9918413758277893,-0.14461730420589447,0.7641333937644958,0.05254682898521423,-0.4181077182292938,-0.4926784038543701,-0.6371339559555054,0.6290392875671387,-0.4295158088207245,0.7707517743110657,-0.2505733072757721,-0.6869944334030151,-0.19810879230499268,0.34353095293045044,1.208853006362915,-1.0221785306930542,0.22710107266902924,-1.1255559921264648,-0.28675317764282227,-0.7274301052093506,-0.06497768312692642,-0.18425466120243073,-0.3798059821128845,-0.026697665452957153,-0.26457008719444275,1.6806113719940186,0.18177254498004913,0.014688334427773952,-0.7407999038696289,-1.2633317708969116,-0.44955888390541077,0.7292091846466064,-0.30339744687080383,0.020558098331093788,-1.4638103246688843,-0.6369695067405701,0.5747137069702148,0.07388773560523987,-0.1119738444685936,1.7441496849060059,-1.0984646081924438,0.16415376961231232,-0.6343111395835876,-1.7299437522888184,-0.11571358144283295,1.4289803504943848,-0.7183529138565063,-1.1093255281448364,0.21343055367469788,-0.6046761274337769,-0.05700092017650604,0.7286686301231384,1.167212963104248,0.4419501721858978,0.4272012412548065,1.1811890602111816,1.283240795135498,0.1648758351802826,1.1070692539215088,1.4052246809005737,-0.4784051477909088,0.05637028440833092,0.25730443000793457,-0.12142354249954224,0.10538502037525177,0.41831454634666443,-0.8443364500999451,-1.3208367824554443,-0.4700861871242523,0.8814049363136292,-0.20591646432876587,-0.4566834568977356,0.3417890965938568,-0.09806698560714722,-0.528540849685669,0.3975560963153839,-0.0051393997855484486,2.1523704528808594,-0.5516371726989746,-0.36622875928878784,2.0273807048797607,-0.4552927017211914,0.049575649201869965,-1.0788863897323608,0.08492259681224823,0.9995442032814026,0.5264350771903992,-0.588341236114502,0.2795133590698242,0.20405329763889313,0.5707105994224548,0.45995286107063293,-1.464186191558838,-0.3108954131603241,0.05124351754784584,-1.6454482078552246,0.5824762582778931,-1.2494659423828125,2.6731960773468018,0.9889780282974243,-0.5685015916824341,1.5380674600601196,-0.34099337458610535,-0.7211582064628601,0.03273136913776398,-1.2395200729370117,-0.7423187494277954,1.8144668340682983,-0.2804800570011139,0.5191357731819153,-0.05059705302119255,1.0958906412124634,0.7712718844413757,0.04567598178982735,-3.9313392639160156,0.2835569381713867,1.117679476737976,0.9453034996986389,-2.3025054931640625,-1.3394373655319214,0.38679346442222595,0.6081685423851013,0.29196324944496155,0.5265167355537415,-1.999233603477478,0.6786264181137085,0.5139095783233643,1.1497975587844849,1.74514639377594,-1.8782942295074463,-1.26625657081604,1.025909662246704,-0.57716304063797,2.2682902812957764,-0.36866796016693115,-1.065122365951538,-0.5329663157463074,-0.6009210348129272,-3.1464037895202637,1.4401370286941528,0.5306634902954102,0.9471302628517151,0.4188600778579712,0.579655110836029,-1.2963099479675293,-0.6718482375144958,-0.22813430428504944,-0.5863743424415588,0.5785132646560669,0.10442304611206055,-0.749657154083252,-0.17251762747764587,-0.3725548982620239,1.2248011827468872,-0.2791576087474823,0.42928650975227356,-0.5959344506263733,0.7896344661712646,0.5440107583999634,-0.705781102180481,1.417975902557373,0.7218156456947327,0.055926866829395294,0.4912470877170563,-0.9306816458702087,0.30747899413108826,2.2660279273986816,0.1256638914346695,0.629021167755127,-0.3397696316242218,-0.15538349747657776,-0.9666141867637634,-0.187914177775383,-0.023490145802497864,3.1213135719299316,0.7998778223991394,-1.3903234004974365,0.5756969451904297,0.06208861619234085,-0.23936598002910614,0.36118799448013306,-0.19516097009181976,1.8610808849334717,0.4270148277282715,0.8980140686035156,0.422296941280365,0.5322513580322266,-0.1605668067932129,-0.3998323380947113,0.5692492127418518,1.1067591905593872,-0.699040949344635,0.45688000321388245,-1.8535994291305542,1.4485057592391968,0.2220766395330429,0.819618284702301,0.5073310732841492,0.17270208895206451,0.20914244651794434,-1.0700671672821045,-1.565732479095459,0.5117346048355103,-0.30952638387680054,-0.010376683436334133,-1.3850291967391968,-1.3921343088150024,-0.6707636713981628,0.5647291541099548,1.2502485513687134,-0.497778058052063,-0.5940455794334412,0.33477678894996643,0.22902339696884155,0.04567515477538109,0.23293060064315796,-1.0422587394714355,0.2579094469547272,-0.19432289898395538,-1.2703207731246948,0.5890127420425415,0.6681429743766785,0.4908086657524109,0.536522626876831,-0.6661524176597595,-1.3506218194961548,-1.7197344303131104,0.33143123984336853,1.0311869382858276,0.6034010648727417,-0.4919287860393524,-0.9315475225448608,-0.7891916036605835,0.7582774758338928,-0.6632477641105652,-0.8854517936706543,-0.7175207138061523,0.8053463697433472,0.7221903204917908,-1.2221804857254028,0.14008308947086334,1.485886573791504]},"forgetBias":{"rows":20,"columns":1,"weights":[0,0,0,0,0,0,0,0,0,0,0,0,0,0,0,0,0,0,0,0]},"outputMatrix":{"rows":20,"columns":20,"weights":[-0.38689497113227844,0.675399124622345,-1.3728224039077759,0.2896205484867096,1.1547036170959473,-0.3942006826400757,1.7571306228637695,-0.35557880997657776,-1.1869856119155884,0.7242554426193237,1.2409700155258179,-0.015863683074712753,1.3689064979553223,0.6130214929580688,0.7900347113609314,-2.415419816970825,0.6157088875770569,-0.7207041382789612,-0.6997613906860352,2.545224189758301,0.9356443881988525,0.1521412879228592,-1.1591018438339233,1.047168254852295,1.2511249780654907,1.3629964590072632,0.06449256837368011,-1.2531338930130005,-0.38708657026290894,-1.3408844470977783,1.300735354423523,0.3857046365737915,0.21270723640918732,-0.1639283448457718,0.9849392175674438,-2.413909435272217,1.2158046960830688,1.9243229627609253,0.6753152012825012,1.3189802169799805,-0.42652052640914917,-1.5783283710479736,0.38184070587158203,-0.5673927664756775,-0.11555008590221405,-0.706188440322876,0.642866313457489,0.542303740978241,0.5754410028457642,-0.018697552382946014,-0.3293966054916382,0.3728196918964386,-1.4368326663970947,-2.5862512588500977,-0.3179118037223816,-0.005433656275272369,-1.7796586751937866,1.3353108167648315,0.12555816769599915,0.3158442974090576,0.16548918187618256,-1.2137147188186646,1.60756254196167,-0.4149574935436249,-1.8642159700393677,-0.42667412757873535,-0.7315970659255981,1.2128872871398926,0.8873910307884216,0.002742381999269128,-0.34508731961250305,0.44676873087882996,-1.0931473970413208,-1.1451681852340698,-1.9781993627548218,2.177543878555298,0.4636404812335968,1.4988443851470947,1.5069080591201782,-1.5997235774993896,1.6483691930770874,0.982269287109375,-1.6324560642242432,1.1441315412521362,2.3270177841186523,0.9215899705886841,0.13088364899158478,-1.685186743736267,-0.39527514576911926,-0.26332584023475647,0.09719241410493851,1.2508265972137451,0.05251031741499901,-0.41843876242637634,0.850251317024231,-1.653666377067566,1.1591318845748901,0.9386076331138611,-0.4495134949684143,0.7875750064849854,1.3398116827011108,1.6396105289459229,-0.4705074429512024,1.640629768371582,0.8443295359611511,1.2496236562728882,-0.34945234656333923,-0.9519162774085999,-0.3459775447845459,0.7264329791069031,1.1888407468795776,0.12705397605895996,1.2631820440292358,-0.26334649324417114,-1.5975865125656128,-1.4365876913070679,1.6541682481765747,1.588576078414917,-0.6599392294883728,1.0494334697723389,0.5157896280288696,-0.18893250823020935,0.30168241262435913,0.2621273100376129,0.20531491935253143,0.20593735575675964,0.539436399936676,-0.17607101798057556,-1.0414115190505981,-0.19740185141563416,-0.16233818233013153,0.691271960735321,0.003143785987049341,-0.953211784362793,0.3517358899116516,-0.0958792045712471,0.3809572160243988,1.1525758504867554,-1.0566308498382568,0.7117426991462708,1.0734927654266357,0.1962340772151947,0.1751140058040619,0.12288334965705872,-1.4248473644256592,1.2071069478988647,-1.7904986143112183,1.1966707706451416,-0.1699332445859909,0.5184243321418762,1.9599467515945435,0.18906143307685852,0.8879832029342651,-0.31262701749801636,-1.3638020753860474,0.6699956655502319,0.32625487446784973,0.5308143496513367,1.046470284461975,-1.3605759143829346,-0.8885460495948792,-1.1610541343688965,0.5087352395057678,-0.6195065379142761,-0.3135864734649658,-0.6791338324546814,0.4916747808456421,0.9339070320129395,1.0858733654022217,-0.03345480561256409,-0.5333009958267212,1.0060667991638184,-0.5627241134643555,-1.8670227527618408,-0.4849172830581665,-0.07659300416707993,-1.6678460836410522,1.104572057723999,0.1667012870311737,0.27405527234077454,0.7147350907325745,0.7164101600646973,-0.48969078063964844,0.36305567622184753,-0.34782010316848755,1.3927857875823975,-0.8344409465789795,-0.3003174662590027,-0.5141843557357788,0.2109980285167694,1.8536955118179321,-0.5057348608970642,0.8341726064682007,-2.267632007598877,-0.9968404173851013,0.3300923705101013,0.733403205871582,-0.6337583065032959,-0.5473778247833252,-0.08390865474939346,1.2592750787734985,0.7509204149246216,-1.0306421518325806,0.947043240070343,1.0121785402297974,1.0167591571807861,0.06089578941464424,-1.365319013595581,-1.213217854499817,0.7492269277572632,-0.7293713092803955,-0.0427234023809433,1.293318271636963,0.635985255241394,0.7634106874465942,-1.7072609663009644,1.26485013961792,0.3945636451244354,-1.0294325351715088,1.0286383628845215,-0.7664479613304138,-0.503510057926178,-0.697651743888855,-0.30103302001953125,0.761768639087677,-0.8358407616615295,1.1901260614395142,0.18081846833229065,-0.14060024917125702,-0.492458701133728,-0.7441741824150085,0.5572270750999451,-1.0187612771987915,-2.64139723777771,0.3225179612636566,-1.2837965488433838,-1.3618683815002441,1.5554354190826416,-0.6402075290679932,1.456343412399292,0.037357937544584274,1.3356605768203735,-1.2687928676605225,0.7301440238952637,2.2797956466674805,0.26559269428253174,0.34480515122413635,0.22518646717071533,0.7829936742782593,0.8499768972396851,0.8254920244216919,0.32895490527153015,-0.12650352716445923,-0.48609209060668945,-1.7300571203231812,-0.7186691164970398,-0.2780158519744873,0.6918607950210571,-1.1445256471633911,0.9240504503250122,-0.4814566373825073,-0.08379737287759781,0.1527002602815628,-0.2637687027454376,0.2853993773460388,-0.36824271082878113,1.233564853668213,-0.43866172432899475,0.24414126574993134,-1.3258185386657715,1.458539366722107,1.0791124105453491,-0.31312745809555054,-1.07268226146698,-2.008883476257324,1.2269678115844727,-0.19249700009822845,0.6478733420372009,-1.4096601009368896,-0.14659333229064941,0.6989186406135559,0.3718429505825043,-1.3826262950897217,0.46459442377090454,0.6360796093940735,0.3400542736053467,0.28810080885887146,-0.8457326889038086,-0.17171606421470642,-0.3784007430076599,0.29908281564712524,0.009060190990567207,0.7515770792961121,-0.2449307143688202,1.8336131572723389,-1.7167986631393433,1.4068628549575806,0.571227490901947,0.2827744483947754,0.965544581413269,-0.4046202003955841,-1.3542571067810059,-0.8594268560409546,-0.757809579372406,-1.8294192552566528,-0.021587852388620377,-0.02966865338385105,1.050421953201294,-0.7883651256561279,-1.2413036823272705,1.2003419399261475,0.5244721174240112,0.7440375685691833,-0.8070129752159119,0.7249938249588013,-0.20234926044940948,-0.20617008209228516,0.6985902190208435,2.6184446811676025,1.0501092672348022,0.5064730048179626,1.1579389572143555,-1.186455488204956,0.9618488550186157,0.8787634968757629,0.9243025183677673,-0.21364359557628632,-1.359453558921814,-1.5005085468292236,3.2927732467651367,1.0950953960418701,1.5095189809799194,1.565340280532837,0.12423524260520935,-1.292116403579712,-0.41925349831581116,0.9986236691474915,-0.16606926918029785,-0.13318517804145813,0.5005828142166138,0.33270785212516785,-0.9862379431724548,0.6417243480682373,-0.4910951256752014,-1.720346212387085,0.25446560978889465,-0.6580745577812195,0.7527196407318115,-0.04014663025736809,-0.14762169122695923,0.02081337384879589,1.1499018669128418,0.2068890929222107,-0.860622227191925,-1.1811469793319702,1.8183611631393433,0.712935745716095,0.5737431645393372,1.3538672924041748,-1.457206130027771,-0.6158509254455566,-1.8512824773788452,0.34811562299728394,-0.9021705985069275,-0.9598575830459595,-0.5351151823997498,0.2240976244211197,0.7023895978927612,0.5085095763206482,-1.4378550052642822,0.18143722414970398,1.4821606874465942,-0.9008741974830627,-1.4575848579406738,-0.7741316556930542,0.23338720202445984,-0.6247468590736389,1.1526747941970825,2.402392625808716,0.03585538640618324,-0.6426439881324768,-0.6838833689689636,0.9930524826049805,-0.10693655908107758,-0.43711042404174805,-0.39708176255226135,0.4458978772163391,0.18581454455852509,-0.9256792068481445,-0.3837657868862152,-0.18104207515716553,0.1563626229763031,-0.23919129371643066,-0.022118492051959038,0.37505435943603516,0.9952707886695862,-0.09052794426679611,0.14459119737148285,0.4936729967594147,0.7838847041130066]},"outputHidden":{"rows":20,"columns":20,"weights":[-1.1155959367752075,-0.8879837989807129,0.7275907397270203,-0.09461106359958649,0.21451394259929657,-0.030839040875434875,-0.6406030654907227,-0.05500359088182449,0.7404215931892395,0.14313441514968872,0.5052949786186218,-0.8746504783630371,0.47270694375038147,0.10000033676624298,0.21864624321460724,-0.7516537308692932,-1.0992807149887085,0.4608213007450104,-0.32438012957572937,-0.8098106980323792,-0.23810473084449768,1.0130053758621216,1.1809587478637695,-0.7311429381370544,0.11428272724151611,-3.169168472290039,0.782738208770752,0.8616995215415955,0.8107684254646301,-1.0839500427246094,-0.6302670240402222,-1.6878118515014648,0.008156495168805122,0.6162686347961426,-2.3287365436553955,1.046990156173706,0.6700316667556763,-0.6514444351196289,0.31282368302345276,-0.07939322292804718,0.9762259125709534,0.12786389887332916,0.061284277588129044,1.374590277671814,-1.5290802717208862,-1.375799536705017,0.1562858521938324,-0.4944509267807007,-0.2401859015226364,0.8713013529777527,-0.033417120575904846,-0.09244939684867859,-1.1486694812774658,-0.7970452904701233,-0.12211518734693527,0.06323336064815521,0.36941051483154297,0.9695151448249817,0.7101570963859558,0.43857887387275696,0.1378287523984909,-0.26783567667007446,-0.03657177835702896,0.044326115399599075,1.0436389446258545,0.3621044456958771,1.8895312547683716,-0.6372111439704895,-0.2141823172569275,0.5831938982009888,1.1330723762512207,-0.19659081101417542,1.2137020826339722,1.7770246267318726,0.544851541519165,1.240865707397461,-0.08518174290657043,0.419872909784317,0.5976741909980774,0.510293185710907,-0.3266177773475647,2.920783519744873,0.8876047730445862,0.018033012747764587,0.46904441714286804,-1.1441617012023926,2.7262461185455322,-0.7082693576812744,1.0276466608047485,0.0015904101310297847,-0.7254945039749146,-1.3095682859420776,-0.04309513047337532,1.3977940082550049,-3.359631061553955,1.7626757621765137,0.8240850567817688,0.232256218791008,-0.3652317225933075,1.5261527299880981,-0.3156026005744934,1.5758116245269775,1.6275025606155396,0.3614746928215027,0.6151537895202637,-2.174455404281616,1.189334750175476,-0.00989441480487585,1.3105884790420532,0.3998030722141266,-0.22805526852607727,-1.387626051902771,-1.8721308708190918,-0.1724393218755722,-1.1497851610183716,2.33453369140625,0.8379836082458496,0.04715532064437866,-0.447413831949234,0.9445663094520569,-0.32252657413482666,-1.0365772247314453,0.06912083178758621,0.44421830773353577,-0.8613096475601196,-0.8640888333320618,-0.5625099539756775,-2.203092336654663,-0.9992830157279968,3.224900007247925,1.1577433347702026,-0.5614390969276428,-1.401561975479126,3.5507771968841553,1.5406715869903564,0.9291336536407471,2.0209007263183594,0.3235207498073578,2.2900688648223877,-1.381088376045227,-0.23797939717769623,0.2242811769247055,-0.23997721076011658,-0.3400745987892151,0.15610046684741974,0.11178091168403625,1.7395892143249512,0.18994300067424774,0.28446993231773376,-0.03433329984545708,0.5985727310180664,-0.38428595662117004,1.1381189823150635,-1.1346306800842285,-0.4072878062725067,0.9270017147064209,0.41849443316459656,0.5428131818771362,-0.580065906047821,0.5959547758102417,1.072425127029419,1.400771975517273,-0.6590136289596558,0.8900004029273987,-1.1609554290771484,-0.380138099193573,-1.2517446279525757,-0.4726038873195648,-0.9362838268280029,0.6848982572555542,-0.8453559875488281,0.479300320148468,-0.08669871836900711,0.608790397644043,-1.0418040752410889,-1.1435246467590332,-0.5525829792022705,1.0922907590866089,0.7731773257255554,-1.5200371742248535,-1.0487216711044312,-0.40011394023895264,-0.08156862109899521,0.019786478951573372,-0.6413822770118713,1.3274685144424438,0.5848092436790466,-1.667710304260254,-0.14238274097442627,1.2448639869689941,1.4400365352630615,-0.159194216132164,-0.9947447180747986,-0.37076854705810547,-0.18939217925071716,-0.05331815034151077,0.24536080658435822,1.294973611831665,0.0899091437458992,1.5097707509994507,1.1764699220657349,1.114761233329773,0.33621543645858765,0.04981331154704094,0.36691421270370483,-1.1073497533798218,0.5887541174888611,0.33148565888404846,0.15170088410377502,-0.9905115962028503,-0.21946781873703003,-0.4702725112438202,0.8655634522438049,0.6874058842658997,-1.2283083200454712,0.9448495507240295,0.5109991431236267,-0.24784155189990997,-0.31442320346832275,0.23557133972644806,0.5608952641487122,-0.23016540706157684,0.6512539386749268,1.235099196434021,-1.2055518627166748,-2.0105485916137695,-0.6052908301353455,-0.017627572640776634,0.23917268216609955,0.3234151005744934,-0.44368064403533936,-0.4392645061016083,-0.3681384027004242,0.5915240049362183,-0.15132716298103333,-0.3104851543903351,0.00651214923709631,0.9982391595840454,0.5939602851867676,0.02756330743432045,0.40868115425109863,2.7442946434020996,0.9553881883621216,2.298689842224121,-0.9077399373054504,-0.41714009642601013,0.06063617765903473,-0.7655478119850159,0.8893676400184631,1.9075007438659668,-1.4506874084472656,-1.0868942737579346,-1.1855405569076538,1.331943392753601,-2.414639711380005,0.5049427151679993,0.4681912064552307,2.3291876316070557,-0.24885442852973938,-0.3660454750061035,1.9108467102050781,0.1790667325258255,-0.2937694787979126,0.6070769429206848,-1.3761764764785767,0.8666835427284241,0.8255547285079956,-0.5848105549812317,0.026588652282953262,1.1617704629898071,0.38116124272346497,-0.11842227727174759,-2.6604349613189697,0.6125181913375854,-0.2853855490684509,1.9906985759735107,1.082154631614685,1.051527976989746,0.22230786085128784,-0.284197062253952,-2.1738829612731934,-0.9223191142082214,1.3324438333511353,-0.36733338236808777,-0.1498992145061493,0.06918420642614365,